{"learner":{"attributes":{},"feature_names":["lag_1","lag_2","lag_3","lag_4","lag_5","lag_6"],"feature_types":["float","float","float","float","float","float"],"gradient_booster":{"model":{"cats":{"enc":[],"feature_segments":[],"sorted_idx":[]},"gbtree_model_param":{"num_parallel_tree":"1","num_trees":"300"},"iteration_indptr":[0,1,2,3,4,5,6,7,8,9,10,11,12,13,14,15,16,17,18,19,20,21,22,23,24,25,26,27,28,29,30,31,32,33,34,35,36,37,38,39,40,41,42,43,44,45,46,47,48,49,50,51,52,53,54,55,56,57,58,59,60,61,62,63,64,65,66,67,68,69,70,71,72,73,74,75,76,77,78,79,80,81,82,83,84,85,86,87,88,89,90,91,92,93,94,95,96,97,98,99,100,101,102,103,104,105,106,107,108,109,110,111,112,113,114,115,116,117,118,119,120,121,122,123,124,125,126,127,128,129,130,131,132,133,134,135,136,137,138,139,140,141,142,143,144,145,146,147,148,149,150,151,152,153,154,155,156,157,158,159,160,161,162,163,164,165,166,167,168,169,170,171,172,173,174,175,176,177,178,179,180,181,182,183,184,185,186,187,188,189,190,191,192,193,194,195,196,197,198,199,200,201,202,203,204,205,206,207,208,209,210,211,212,213,214,215,216,217,218,219,220,221,222,223,224,225,226,227,228,229,230,231,232,233,234,235,236,237,238,239,240,241,242,243,244,245,246,247,248,249,250,251,252,253,254,255,256,257,258,259,260,261,262,263,264,265,266,267,268,269,270,271,272,273,274,275,276,277,278,279,280,281,282,283,284,285,286,287,288,289,290,291,292,293,294,295,296,297,298,299,300],"tree_info":[0,0,0,0,0,0,0,0,0,0,0,0,0,0,0,0,0,0,0,0,0,0,0,0,0,0,0,0,0,0,0,0,0,0,0,0,0,0,0,0,0,0,0,0,0,0,0,0,0,0,0,0,0,0,0,0,0,0,0,0,0,0,0,0,0,0,0,0,0,0,0,0,0,0,0,0,0,0,0,0,0,0,0,0,0,0,0,0,0,0,0,0,0,0,0,0,0,0,0,0,0,0,0,0,0,0,0,0,0,0,0,0,0,0,0,0,0,0,0,0,0,0,0,0,0,0,0,0,0,0,0,0,0,0,0,0,0,0,0,0,0,0,0,0,0,0,0,0,0,0,0,0,0,0,0,0,0,0,0,0,0,0,0,0,0,0,0,0,0,0,0,0,0,0,0,0,0,0,0,0,0,0,0,0,0,0,0,0,0,0,0,0,0,0,0,0,0,0,0,0,0,0,0,0,0,0,0,0,0,0,0,0,0,0,0,0,0,0,0,0,0,0,0,0,0,0,0,0,0,0,0,0,0,0,0,0,0,0,0,0,0,0,0,0,0,0,0,0,0,0,0,0,0,0,0,0,0,0,0,0,0,0,0,0,0,0,0,0,0,0,0,0,0,0,0,0,0,0,0,0,0,0,0,0,0,0,0,0,0,0,0,0,0,0,0,0,0,0,0,0],"trees":[{"base_weights":[1.2269095E2,-5.873769E2,3.2485999E3,-2.4496482E3,7.112901E2,4.6670723E3,3.2932343E2,-2.6717102E3,5.534136E1,1.8507445E3,-3.622582E3,6.5876953E2,2.946689E2,-4.3083645E1,4.212454E1,-1.0519274E2,-2.0340384E2,-8.033556E1,1.8878374E2,-2.4752547E2,-6.945046E1,9.5616356E1,-4.6208645E1],"categories":[],"categories_nodes":[],"categories_segments":[],"categories_sizes":[],"default_left":[0,0,0,0,0,0,0,0,0,0,0,0,0,0,0,0,0,0,0,0,0,0,0],"id":0,"left_children":[1,3,5,7,9,11,13,15,-1,17,19,21,-1,-1,-1,-1,-1,-1,-1,-1,-1,-1,-1],"loss_changes":[1.4396304E8,1.2992133E8,4.815399E7,2.0331792E7,1.6472846E8,3.544088E7,3.7818535E6,8.092976E6,0E0,1.7910578E8,1.3885848E7,7.720249E6,0E0,0E0,0E0,0E0,0E0,0E0,0E0,0E0,0E0,0E0,0E0],"parents":[2147483647,0,0,1,1,2,2,3,3,4,4,5,5,6,6,7,7,9,9,10,10,11,11],"right_children":[2,4,6,8,10,12,14,16,-1,18,20,22,-1,-1,-1,-1,-1,-1,-1,-1,-1,-1,-1],"split_conditions":[1.8581E4,1.2181E4,2.0379E4,1.701E4,1.5926E4,1.0965E4,2.0249E4,1.0947E4,5.534136E1,1.0862E4,1.5388E4,2.0677E4,2.946689E2,-4.3083645E1,4.212454E1,-1.0519274E2,-2.0340384E2,-8.033556E1,1.8878374E2,-2.4752547E2,-6.945046E1,9.5616356E1,-4.6208645E1],"split_indices":[1,4,2,1,2,4,1,4,0,1,5,1,0,0,0,0,0,0,0,0,0,0,0],"split_type":[0,0,0,0,0,0,0,0,0,0,0,0,0,0,0,0,0,0,0,0,0,0,0],"sum_hessian":[6.3E1,5.2E1,1.1E1,2.1E1,3.1E1,7E0,4E0,2E1,1E0,2.5E1,6E0,2E0,5E0,1E0,3E0,1.6E1,4E0,9E0,1.6E1,3E0,3E0,1E0,1E0],"tree_param":{"num_deleted":"0","num_feature":"6","num_nodes":"23","size_leaf_vector":"1"}},{"base_weights":[-2.147416E2,-1.4355352E3,3.1384692E2,-4.247464E3,-2.1378789E2,-4.5320273E3,5.247559E-1,6.273132E2,-1.545297E3,-2.4536339E2,-1.1366503E2,-3.521844E1,1.2810524E2,-1.6011296E2,-1.9829496E1],"categories":[],"categories_nodes":[],"categories_segments":[],"categories_sizes":[],"default_left":[0,0,0,0,0,0,0,0,0,0,0,0,0,0,0],"id":1,"left_children":[1,3,-1,5,7,9,-1,11,13,-1,-1,-1,-1,-1,-1],"loss_changes":[5.0036083E8,1.8117165E8,0E0,1.9434144E7,4.3526868E7,1.55776E6,0E0,6.3641316E7,2.728048E7,0E0,0E0,0E0,0E0,0E0,0E0],"parents":[2147483647,0,0,1,1,3,3,4,4,5,5,7,7,8,8],"right_children":[2,4,-1,6,8,10,-1,12,14,-1,-1,-1,-1,-1,-1],"split_conditions":[1.8581E4,1.0792E4,3.1384692E2,1.9933E4,1.5926E4,1.0015E4,5.247559E-1,1.2181E4,1.247E4,-2.4536339E2,-1.1366503E2,-3.521844E1,1.2810524E2,-1.6011296E2,-1.9829496E1],"split_indices":[0,0,0,5,2,0,0,3,0,0,0,0,0,0,0],"split_type":[0,0,0,0,0,0,0,0,0,0,0,0,0,0,0],"sum_hessian":[6.1E1,5.2E1,9E0,1.5E1,3.7E1,1.4E1,1E0,2.3E1,1.4E1,1.1E1,3E0,1.4E1,9E0,5E0,9E0],"tree_param":{"num_deleted":"0","num_feature":"6","num_nodes":"15","size_leaf_vector":"1"}},{"base_weights":[-4.4062067E2,-2.1172332E3,4.087011E2,-2.5644436E3,-2.627133E2,3.1424207E3,-2.664037E2,-3.2273926E1,-1.573154E2,1.482E2,-1.8103916E3,-3.792278E1,3.8080396E3,2.1053174E2,-8.54462E2,-4.5094753E1,2.7911573E1,-1.02254036E2,-2.7658106E1,2.1523828E2,2.0692066E1,-1.17198425E2,5.076287E1],"categories":[],"categories_nodes":[],"categories_segments":[],"categories_sizes":[],"default_left":[0,0,0,0,0,0,0,0,0,0,0,0,0,0,0,0,0,0,0,0,0,0,0],"id":2,"left_children":[1,3,5,7,9,11,13,15,-1,-1,17,-1,19,-1,21,-1,-1,-1,-1,-1,-1,-1,-1],"loss_changes":[8.4880344E7,1.5913496E7,7.465904E7,2.3472528E7,3.0335572E7,2.36602E7,9.04789E7,2.5575298E6,0E0,0E0,4.8971E4,0E0,1.0020416E7,0E0,8.59285E7,0E0,0E0,0E0,0E0,0E0,0E0,0E0,0E0],"parents":[2147483647,0,0,1,1,2,2,3,3,4,4,5,5,6,6,7,7,10,10,12,12,14,14],"right_children":[2,4,6,8,10,12,14,16,-1,-1,18,-1,20,-1,22,-1,-1,-1,-1,-1,-1,-1,-1],"split_conditions":[1.2181E4,1.3932E4,1.276E4,7.962E3,1.4587E4,7.975E3,1.0947E4,7.61E3,-1.573154E2,1.482E2,1.713E4,-3.792278E1,2.0379E4,2.1053174E2,1.5936E4,-4.5094753E1,2.7911573E1,-1.02254036E2,-2.7658106E1,2.1523828E2,2.0692066E1,-1.17198425E2,5.076287E1],"split_indices":[4,1,4,5,1,2,5,1,0,0,2,0,2,0,5,0,0,0,0,0,0,0,0],"split_type":[0,0,0,0,0,0,0,0,0,0,0,0,0,0,0,0,0,0,0,0,0,0,0],"sum_hessian":[5.8E1,1.9E1,3.9E1,1.5E1,4E0,7E0,3.2E1,3E0,1.2E1,1E0,3E0,1E0,6E0,3E0,2.9E1,1E0,2E0,2E0,1E0,5E0,1E0,1.6E1,1.3E1],"tree_param":{"num_deleted":"0","num_feature":"6","num_nodes":"23","size_leaf_vector":"1"}},{"base_weights":[1.2547607E0,-1.3888303E3,3.9519568E3,-3.7641282E3,-1.9574411E2,2.8268832E2,9.052479E2,-2.8011262E3,-2.438628E2,-1.4969562E3,8.669392E2,-4.0819363E1,6.3391125E1,-1.5265099E2,-7.574219E-1,5.580952E1,-8.650199E1,9.6693474E1,-7.715942E1],"categories":[],"categories_nodes":[],"categories_segments":[],"categories_sizes":[],"default_left":[0,0,0,0,0,0,0,0,0,0,0,0,0,0,0,0,0,0,0],"id":3,"left_children":[1,3,5,7,9,-1,11,13,-1,15,17,-1,-1,-1,-1,-1,-1,-1,-1],"loss_changes":[4.0089904E8,1.5229566E8,9.339539E7,5.633216E6,5.2460496E7,0E0,6.0288035E6,8.374984E6,0E0,1.2285444E7,5.698452E7,0E0,0E0,0E0,0E0,0E0,0E0,0E0,0E0],"parents":[2147483647,0,0,1,1,2,2,3,3,4,4,6,6,7,7,9,9,10,10],"right_children":[2,4,6,8,10,-1,12,14,-1,16,18,-1,-1,-1,-1,-1,-1,-1,-1],"split_conditions":[1.701E4,1.0677E4,1.3401E4,1.247E4,1.2181E4,2.8268832E2,1.4587E4,1.2181E4,-2.438628E2,7.61E3,1.701E4,-4.0819363E1,6.3391125E1,-1.5265099E2,-7.574219E-1,5.580952E1,-8.650199E1,9.6693474E1,-7.715942E1],"split_indices":[0,0,3,2,4,0,3,2,0,3,2,0,0,0,0,0,0,0,0],"split_type":[0,0,0,0,0,0,0,0,0,0,0,0,0,0,0,0,0,0,0],"sum_hessian":[7.1E1,5.3E1,1.8E1,1.7E1,3.6E1,1.1E1,7E0,1.1E1,6E0,1.6E1,2E1,1E0,6E0,1E1,1E0,1E0,1.5E1,1.4E1,6E0],"tree_param":{"num_deleted":"0","num_feature":"6","num_nodes":"19","size_leaf_vector":"1"}},{"base_weights":[2.7317314E1,-1.244746E3,3.8419897E3,-3.7046882E3,-2.9114905E2,5.774262E3,1.7187456E3,-2.571584E3,-2.4878738E2,-1.0607386E3,1.0622162E3,5.471526E1,3.1112344E2,2.3984905E3,9.950586E1,-1.4270166E2,-7.384766E-1,9.900321E0,-1.16735756E2,8.914281E1,-6.826287E1,7.440259E0,1.3743185E2,-3.9798878E1,3.316631E1],"categories":[],"categories_nodes":[],"categories_segments":[],"categories_sizes":[],"default_left":[0,0,0,0,0,0,0,0,0,0,0,0,0,0,0,0,0,0,0,0,0,0,0,0,0],"id":4,"left_children":[1,3,5,7,9,11,13,15,-1,17,19,-1,-1,21,23,-1,-1,-1,-1,-1,-1,-1,-1,-1,-1],"loss_changes":[3.4931014E8,1.2559424E8,6.392389E7,8.80808E6,4.278817E7,1.2068992E7,1.0768032E7,7.179552E6,0E0,4.2156184E7,2.8674066E7,0E0,0E0,5.105024E6,2.5475598E6,0E0,0E0,0E0,0E0,0E0,0E0,0E0,0E0,0E0,0E0],"parents":[2147483647,0,0,1,1,2,2,3,3,4,4,5,5,6,6,7,7,9,9,10,10,13,13,14,14],"right_children":[2,4,6,8,10,12,14,16,-1,18,20,-1,-1,22,24,-1,-1,-1,-1,-1,-1,-1,-1,-1,-1],"split_conditions":[1.701E4,1.0792E4,1.3401E4,1.276E4,1.5388E4,1.0947E4,2.0379E4,1.3932E4,-2.4878738E2,1.2674E4,2.09E4,5.471526E1,3.1112344E2,1.3754E4,1.8581E4,-1.4270166E2,-7.384766E-1,9.900321E0,-1.16735756E2,8.914281E1,-6.826287E1,7.440259E0,1.3743185E2,-3.9798878E1,3.316631E1],"split_indices":[0,0,2,2,4,2,2,3,0,2,2,0,0,2,0,0,0,0,0,0,0,0,0,0,0],"split_type":[0,0,0,0,0,0,0,0,0,0,0,0,0,0,0,0,0,0,0,0,0,0,0,0,0],"sum_hessian":[7E1,5.3E1,1.7E1,1.4E1,3.9E1,8E0,9E0,9E0,5E0,2.5E1,1.4E1,1E0,7E0,6E0,3E0,8E0,1E0,1.3E1,1.2E1,1.1E1,3E0,1E0,5E0,1E0,2E0],"tree_param":{"num_deleted":"0","num_feature":"6","num_nodes":"25","size_leaf_vector":"1"}},{"base_weights":[1.3522758E2,-1.2061439E3,3.8843064E3,-3.4437888E3,-5.5580875E1,4.7877627E3,2.1638457E2,-1.9928618E3,-4.1240913E3,1.5237115E3,-1.5531296E3,2.4237505E3,2.6868942E2,-3.8803905E1,3.292599E1,-1.2849333E2,-3.8669533E1,-2.3224951E2,-9.605227E1,-2.12535E1,1.660061E2,-1.2166952E2,2.1463379E1,1.6157811E2,4.040109E1],"categories":[],"categories_nodes":[],"categories_segments":[],"categories_sizes":[],"default_left":[0,0,0,0,0,0,0,0,0,0,0,0,0,0,0,0,0,0,0,0,0,0,0,0,0],"id":5,"left_children":[1,3,5,7,9,11,13,15,17,19,21,23,-1,-1,-1,-1,-1,-1,-1,-1,-1,-1,-1,-1,-1],"loss_changes":[3.818531E8,1.4398349E8,6.524016E7,1.0535568E7,9.223909E7,9.141216E6,2.705076E6,3.641614E6,4.847536E6,6.79267E7,3.594511E7,3.914852E6,0E0,0E0,0E0,0E0,0E0,0E0,0E0,0E0,0E0,0E0,0E0,0E0,0E0],"parents":[2147483647,0,0,1,1,2,2,3,3,4,4,5,5,6,6,7,7,8,8,9,9,10,10,11,11],"right_children":[2,4,6,8,10,12,14,16,18,20,22,24,-1,-1,-1,-1,-1,-1,-1,-1,-1,-1,-1,-1,-1],"split_conditions":[1.701E4,1.0895E4,2.0379E4,9.364E3,1.3791E4,1.7816E4,1.8581E4,7.962E3,9.545E3,1.0677E4,1.9933E4,1.7562E4,2.6868942E2,-3.8803905E1,3.292599E1,-1.2849333E2,-3.8669533E1,-2.3224951E2,-9.605227E1,-2.12535E1,1.660061E2,-1.2166952E2,2.1463379E1,1.6157811E2,4.040109E1],"split_indices":[0,0,2,1,1,0,0,0,0,2,4,0,0,0,0,0,0,0,0,0,0,0,0,0,0],"split_type":[0,0,0,0,0,0,0,0,0,0,0,0,0,0,0,0,0,0,0,0,0,0,0,0,0],"sum_hessian":[7.4E1,5.5E1,1.9E1,1.8E1,3.7E1,1.5E1,4E0,7E0,1.1E1,1.8E1,1.9E1,4E0,1.1E1,1E0,3E0,4E0,3E0,8E0,3E0,9E0,9E0,1.3E1,6E0,2E0,2E0],"tree_param":{"num_deleted":"0","num_feature":"6","num_nodes":"25","size_leaf_vector":"1"}},{"base_weights":[-8.513043E1,-6.715672E2,3.1487847E3,-2.3365396E3,-2.022209E2,2.2932591E2,3.9687386E1,-1.5427422E2,-6.72793E1,1.5680131E3,-1.2697837E3,2.8190153E1,-4.901316E1,-2.583733E1,1.5395097E2,-1.1045475E2,8.336142E0],"categories":[],"categories_nodes":[],"categories_segments":[],"categories_sizes":[],"default_left":[0,0,0,0,0,0,0,0,0,0,0,0,0,0,0,0,0],"id":6,"left_children":[1,3,5,7,9,-1,-1,-1,11,13,15,-1,-1,-1,-1,-1,-1],"loss_changes":[1.2348976E8,4.2507176E7,3.0218616E7,2.0187012E7,8.5143816E7,0E0,0E0,0E0,2.8573475E6,5.514252E7,3.8149464E7,0E0,0E0,0E0,0E0,0E0,0E0],"parents":[2147483647,0,0,1,1,2,2,3,3,4,4,8,8,9,9,10,10],"right_children":[2,4,6,8,10,-1,-1,-1,12,14,16,-1,-1,-1,-1,-1,-1],"split_conditions":[1.8944E4,1.0015E4,2.0379E4,1.5936E4,1.3754E4,2.2932591E2,3.9687386E1,-1.5427422E2,8.816E3,1.0862E4,1.5388E4,2.8190153E1,-4.901316E1,-2.583733E1,1.5395097E2,-1.1045475E2,8.336142E0],"split_indices":[1,1,2,4,2,0,0,0,1,2,4,0,0,0,0,0,0],"split_type":[0,0,0,0,0,0,0,0,0,0,0,0,0,0,0,0,0],"sum_hessian":[6.3E1,5.4E1,9E0,1.1E1,4.3E1,5E0,4E0,8E0,3E0,1.6E1,2.7E1,2E0,1E0,7E0,9E0,1.6E1,1.1E1],"tree_param":{"num_deleted":"0","num_feature":"6","num_nodes":"17","size_leaf_vector":"1"}},{"base_weights":[3.8360007E2,-8.266546E2,3.635842E3,-3.3533474E3,-3.1646946E1,4.423916E3,-3.1377686E1,-3.8841094E3,-6.432783E2,-8.752458E2,7.692176E2,6.6127914E1,2.4152979E2,-3.8826E1,2.3792156E1,-3.1759937E1,-2.1054117E2,-4.778784E1,-4.5803222E-1,-8.341918E1,4.9454704E1,7.5006584E1,-5.3222584E1],"categories":[],"categories_nodes":[],"categories_segments":[],"categories_sizes":[],"default_left":[0,0,0,0,0,0,0,0,0,0,0,0,0,0,0,0,0,0,0,0,0,0,0],"id":7,"left_children":[1,3,5,7,9,11,13,15,17,19,21,-1,-1,-1,-1,-1,-1,-1,-1,-1,-1,-1,-1],"loss_changes":[2.4704014E8,9.229593E7,4.926949E7,1.3323848E7,2.4995154E7,1.1268928E7,1.8813082E6,6.87848E6,5.856891E5,2.8266408E7,2.706166E7,0E0,0E0,0E0,0E0,0E0,0E0,0E0,0E0,0E0,0E0,0E0,0E0],"parents":[2147483647,0,0,1,1,2,2,3,3,4,4,5,5,6,6,7,7,8,8,9,9,10,10],"right_children":[2,4,6,8,10,12,14,16,18,20,22,-1,-1,-1,-1,-1,-1,-1,-1,-1,-1,-1,-1],"split_conditions":[1.701E4,1.0015E4,2.0379E4,1.5388E4,1.2181E4,1.0677E4,1.8581E4,7.237E3,7.049E3,1.3932E4,1.701E4,6.6127914E1,2.4152979E2,-3.8826E1,2.3792156E1,-3.1759937E1,-2.1054117E2,-4.778784E1,-4.5803222E-1,-8.341918E1,4.9454704E1,7.5006584E1,-5.3222584E1],"split_indices":[0,0,2,5,3,5,0,5,0,0,2,0,0,0,0,0,0,0,0,0,0,0,0],"split_type":[0,0,0,0,0,0,0,0,0,0,0,0,0,0,0,0,0,0,0,0,0,0,0],"sum_hessian":[6.1E1,4.5E1,1.6E1,1E1,3.5E1,1.3E1,3E0,8E0,2E0,1.7E1,1.8E1,2E0,1.1E1,1E0,2E0,1E0,7E0,1E0,1E0,1.2E1,5E0,1.3E1,5E0],"tree_param":{"num_deleted":"0","num_feature":"6","num_nodes":"23","size_leaf_vector":"1"}},{"base_weights":[6.6382E1,-1.2559603E3,2.478208E3,-3.3993127E3,-4.7993417E2,4.475302E3,1.1147378E3,-1.8603292E3,-2.185872E2,-1.6627795E3,4.168958E2,6.752744E1,2.5875766E2,2.8892618E2,2.305301E3,-1.11441124E2,-4.4658205E-1,-1.0890381E2,-4.1816456E1,8.594842E1,-1.0303976E2,-3.7474056E1,5.530556E1,1.3065887E2,1.914795E1],"categories":[],"categories_nodes":[],"categories_segments":[],"categories_sizes":[],"default_left":[0,0,0,0,0,0,0,0,0,0,0,0,0,0,0,0,0,0,0,0,0,0,0,0,0],"id":8,"left_children":[1,3,5,7,9,11,13,15,-1,17,19,-1,-1,21,23,-1,-1,-1,-1,-1,-1,-1,-1,-1,-1],"loss_changes":[2.0722514E8,6.822706E7,5.763968E7,8.32924E6,3.463917E7,1.269248E7,1.4081652E7,4.073458E6,0E0,4.140552E6,6.483897E7,0E0,0E0,9.314718E6,2.550326E6,0E0,0E0,0E0,0E0,0E0,0E0,0E0,0E0,0E0,0E0],"parents":[2147483647,0,0,1,1,2,2,3,3,4,4,5,5,6,6,7,7,9,9,10,10,13,13,14,14],"right_children":[2,4,6,8,10,12,14,16,-1,18,20,-1,-1,22,24,-1,-1,-1,-1,-1,-1,-1,-1,-1,-1],"split_conditions":[1.5189E4,9.545E3,1.2965E4,7.975E3,1.2026E4,1.0947E4,1.999E4,7.962E3,-2.185872E2,1.2143E4,1.701E4,6.752744E1,2.5875766E2,1.5388E4,2.0379E4,-1.11441124E2,-4.4658205E-1,-1.0890381E2,-4.1816456E1,8.594842E1,-1.0303976E2,-3.7474056E1,5.530556E1,1.3065887E2,1.914795E1],"split_indices":[0,0,2,0,4,2,0,0,0,3,2,0,0,3,2,0,0,0,0,0,0,0,0,0,0],"split_type":[0,0,0,0,0,0,0,0,0,0,0,0,0,0,0,0,0,0,0,0,0,0,0,0,0],"sum_hessian":[6.3E1,4.1E1,2.2E1,1E1,3.1E1,8E0,1.4E1,5E0,5E0,1.3E1,1.8E1,2E0,6E0,9E0,5E0,4E0,1E0,7E0,6E0,1.2E1,6E0,4E0,5E0,4E0,1E0],"tree_param":{"num_deleted":"0","num_feature":"6","num_nodes":"25","size_leaf_vector":"1"}},{"base_weights":[-1.9669992E1,-2.142163E3,1.3957937E3,-2.3101843E3,5.9860302E1,3.4246707E3,4.7008722E2,-1.5616895E2,-2.4762588E3,2.8560547E2,3.9694458E3,-1.03634E3,2.2657424E3,-2.550127E1,1.3788599E1,-1.4754439E2,-6.522988E1,3.7309864E1,-1.5889453E1,7.8203156E1,2.1650952E2,-6.536892E1,8.568957E0,1.8412366E2,1.6147217E1],"categories":[],"categories_nodes":[],"categories_segments":[],"categories_sizes":[],"default_left":[0,0,0,0,0,0,0,0,0,0,0,0,0,0,0,0,0,0,0,0,0,0,0,0,0],"id":9,"left_children":[1,3,5,7,-1,9,11,13,15,17,19,21,23,-1,-1,-1,-1,-1,-1,-1,-1,-1,-1,-1,-1],"loss_changes":[2.1028754E8,1.8476152E7,7.727217E7,9.27192E6,0E0,2.1097392E7,8.34988E7,5.99186E5,1.005288E7,1.070889E6,2.772336E6,5.788808E6,3.7344664E7,0E0,0E0,0E0,0E0,0E0,0E0,0E0,0E0,0E0,0E0,0E0,0E0],"parents":[2147483647,0,0,1,1,2,2,3,3,5,5,6,6,7,7,8,8,9,9,10,10,11,11,12,12],"right_children":[2,4,6,8,-1,10,12,14,16,18,20,22,24,-1,-1,-1,-1,-1,-1,-1,-1,-1,-1,-1,-1],"split_conditions":[1.247E4,2.1247E4,1.3754E4,7.237E3,5.9860302E1,1.0862E4,1.701E4,9.498E3,1.4587E4,1.4405E4,8.997E3,1.8944E4,1.3401E4,-2.550127E1,1.3788599E1,-1.4754439E2,-6.522988E1,3.7309864E1,-1.5889453E1,7.8203156E1,2.1650952E2,-6.536892E1,8.568957E0,1.8412366E2,1.6147217E1],"split_indices":[0,5,1,5,0,1,0,0,5,0,3,1,3,0,0,0,0,0,0,0,0,0,0,0,0],"split_type":[0,0,0,0,0,0,0,0,0,0,0,0,0,0,0,0,0,0,0,0,0,0,0,0,0],"sum_hessian":[6.8E1,2.7E1,4.1E1,2.6E1,1E0,1.2E1,2.9E1,2E0,2.4E1,2E0,1E1,1.6E1,1.3E1,1E0,1E0,1.6E1,8E0,1E0,1E0,2E0,8E0,1.3E1,3E0,7E0,6E0],"tree_param":{"num_deleted":"0","num_feature":"6","num_nodes":"25","size_leaf_vector":"1"}},{"base_weights":[7.480301E1,-1.8590636E3,6.403363E2,-2.4433164E3,3.1806055E1,2.3236392E3,-4.528943E2,-2.274497E1,-2.7634922E3,3.6377125E1,-3.2401367E2,-7.04986E2,3.9859048E3,-9.959425E2,1.5722672E3,-5.144245E1,-1.5173259E2,-4.217637E1,6.5166664E0,5.519756E1,-5.3454853E1,1.642428E1,2.4364429E2,-1.056809E2,9.406452E0,1.1834126E2,3.1108368E1],"categories":[],"categories_nodes":[],"categories_segments":[],"categories_sizes":[],"default_left":[0,0,0,0,0,0,0,0,0,0,0,0,0,0,0,0,0,0,0,0,0,0,0,0,0,0,0],"id":10,"left_children":[1,3,5,7,9,11,13,-1,15,-1,17,19,21,23,25,-1,-1,-1,-1,-1,-1,-1,-1,-1,-1,-1,-1],"loss_changes":[8.212171E7,1.8858384E7,1.0778617E8,7.019248E6,1.4735174E6,1.18600744E8,4.115726E7,0E0,2.051832E6,0E0,1.0540978E6,7.1081165E6,4.706024E7,3.877645E7,4.566714E6,0E0,0E0,0E0,0E0,0E0,0E0,0E0,0E0,0E0,0E0,0E0,0E0],"parents":[2147483647,0,0,1,1,2,2,3,3,4,4,5,5,6,6,8,8,10,10,11,11,12,12,13,13,14,14],"right_children":[2,4,6,8,10,12,14,-1,16,-1,18,20,22,24,26,-1,-1,-1,-1,-1,-1,-1,-1,-1,-1,-1,-1],"split_conditions":[1.0677E4,1.5936E4,1.3401E4,7.962E3,7.975E3,1.0583E4,2.0249E4,-2.274497E1,7.61E3,3.6377125E1,1.2181E4,1.0965E4,1.0895E4,1.5388E4,2.0128E4,-5.144245E1,-1.5173259E2,-4.217637E1,6.5166664E0,5.519756E1,-5.3454853E1,1.642428E1,2.4364429E2,-1.056809E2,9.406452E0,1.1834126E2,3.1108368E1],"split_indices":[1,4,2,1,1,3,1,0,2,0,2,1,1,4,2,0,0,0,0,0,0,0,0,0,0,0,0],"split_type":[0,0,0,0,0,0,0,0,0,0,0,0,0,0,0,0,0,0,0,0,0,0,0,0,0,0,0],"sum_hessian":[7.3E1,1.6E1,5.7E1,1.2E1,4E0,2.2E1,3.5E1,2E0,1E1,1E0,3E0,8E0,1.4E1,2.8E1,7E0,2E0,8E0,1E0,2E0,1E0,7E0,3E0,1.1E1,1.4E1,1.4E1,3E0,4E0],"tree_param":{"num_deleted":"0","num_feature":"6","num_nodes":"27","size_leaf_vector":"1"}},{"base_weights":[1.9624039E1,-7.844184E2,4.439895E3,-3.152508E3,2.3621466E1,5.2501442E1,2.3499385E2,-2.0212142E3,-1.8741634E2,9.9221533E2,-9.020191E2,-2.4295118E1,-1.098058E2,-1.775054E1,1.4139813E2,-8.794548E1,1.5107017E1],"categories":[],"categories_nodes":[],"categories_segments":[],"categories_sizes":[],"default_left":[0,0,0,0,0,0,0,0,0,0,0,0,0,0,0,0,0],"id":11,"left_children":[1,3,5,7,9,-1,-1,11,-1,13,15,-1,-1,-1,-1,-1,-1],"loss_changes":[2.3094421E8,1.0531755E8,3.878032E6,1.86048E6,3.8550932E7,0E0,0E0,8.12602E5,0E0,5.2940456E7,2.3231756E7,0E0,0E0,0E0,0E0,0E0,0E0],"parents":[2147483647,0,0,1,1,2,2,3,3,4,4,7,7,9,9,10,10],"right_children":[2,4,6,8,10,-1,-1,12,-1,14,16,-1,-1,-1,-1,-1,-1],"split_conditions":[1.8944E4,1.0015E4,1.1143E4,9.364E3,1.2759E4,5.2501442E1,2.3499385E2,9.374E3,-1.8741634E2,1.2267E4,1.5189E4,-2.4295118E1,-1.098058E2,-1.775054E1,1.4139813E2,-8.794548E1,1.5107017E1],"split_indices":[0,0,3,1,1,0,0,3,0,3,0,0,0,0,0,0,0],"split_type":[0,0,0,0,0,0,0,0,0,0,0,0,0,0,0,0,0],"sum_hessian":[6.3E1,5.4E1,9E0,1.3E1,4.1E1,1E0,8E0,6E0,7E0,2E1,2.1E1,1E0,5E0,1.2E1,8E0,1.2E1,9E0],"tree_param":{"num_deleted":"0","num_feature":"6","num_nodes":"17","size_leaf_vector":"1"}},{"base_weights":[-2.2448203E2,-2.2615657E3,1.4227375E3,-2.6610247E3,1.8804257E2,3.2553892E3,4.8615524E2,2.961893E1,-2.9696848E3,6.898662E2,-4.54813E1,1.0132297E3,4.2498154E3,-7.974363E2,1.7323502E3,-6.91663E1,-1.5692363E2,5.7729006E0,6.032727E1,8.329981E0,7.610583E1,2.251931E2,6.178721E1,-7.556112E1,-8.120862E0,1.2408126E2,1.8592579E0],"categories":[],"categories_nodes":[],"categories_segments":[],"categories_sizes":[],"default_left":[0,0,0,0,0,0,0,0,0,0,0,0,0,0,0,0,0,0,0,0,0,0,0,0,0,0,0],"id":12,"left_children":[1,3,5,7,9,11,13,-1,15,17,-1,19,21,23,25,-1,-1,-1,-1,-1,-1,-1,-1,-1,-1,-1,-1],"loss_changes":[2.1797115E8,2.8877392E7,6.0208824E7,2.686408E7,3.3817005E6,2.2449896E7,4.1371572E7,0E0,1.816896E6,1.047834E6,0E0,1.9006105E6,5.60096E5,5.6470315E6,1.64196E7,0E0,0E0,0E0,0E0,0E0,0E0,0E0,0E0,0E0,0E0,0E0,0E0],"parents":[2147483647,0,0,1,1,2,2,3,3,4,4,5,5,6,6,8,8,9,9,11,11,12,12,13,13,14,14],"right_children":[2,4,6,8,10,12,14,-1,16,18,-1,20,22,24,26,-1,-1,-1,-1,-1,-1,-1,-1,-1,-1,-1,-1],"split_conditions":[1.276E4,1.9933E4,1.3754E4,7.962E3,1.0947E4,1.0965E4,1.701E4,2.961893E1,7.61E3,1.0862E4,-4.54813E1,1.4767E4,1.3401E4,1.4405E4,2.0128E4,-6.91663E1,-1.5692363E2,5.7729006E0,6.032727E1,8.329981E0,7.610583E1,2.251931E2,6.178721E1,-7.556112E1,-8.120862E0,1.2408126E2,1.8592579E0],"split_indices":[0,5,1,5,0,1,0,0,2,0,0,0,1,2,2,0,0,0,0,0,0,0,0,0,0,0,0],"split_type":[0,0,0,0,0,0,0,0,0,0,0,0,0,0,0,0,0,0,0,0,0,0,0,0,0,0,0],"sum_hessian":[6.3E1,2.8E1,3.5E1,2.4E1,4E0,1.1E1,2.4E1,2E0,2.2E1,3E0,1E0,4E0,7E0,1.2E1,1.2E1,3E0,1.9E1,2E0,1E0,2E0,2E0,6E0,1E0,5E0,7E0,8E0,4E0],"tree_param":{"num_deleted":"0","num_feature":"6","num_nodes":"27","size_leaf_vector":"1"}},{"base_weights":[1.8924489E2,-8.442874E2,2.7359172E3,-2.7092761E3,-2.6701276E2,4.14546E3,1.0527828E3,-3.1743574E3,-4.109398E2,3.9841043E2,-1.6865118E3,3.0787647E1,2.2346162E2,1.72489E3,3.5697655E1,-2.4428223E1,-1.7245055E2,-3.4453712E1,3.6332276E0,-2.4658123E1,9.3712166E1,-1.2149894E2,-2.6902433E1,2.2913818E1,9.432787E1,-3.5104347E1,1.9783278E1],"categories":[],"categories_nodes":[],"categories_segments":[],"categories_sizes":[],"default_left":[0,0,0,0,0,0,0,0,0,0,0,0,0,0,0,0,0,0,0,0,0,0,0,0,0,0,0],"id":13,"left_children":[1,3,5,7,9,11,13,15,17,19,21,-1,-1,23,25,-1,-1,-1,-1,-1,-1,-1,-1,-1,-1,-1,-1],"loss_changes":[1.7339432E8,4.987729E7,4.071227E7,1.0453576E7,3.562093E7,8.676272E6,6.774327E6,4.953904E6,4.535923E5,3.513543E7,8.938684E6,0E0,0E0,3.64056E5,1.6056852E6,0E0,0E0,0E0,0E0,0E0,0E0,0E0,0E0,0E0,0E0,0E0,0E0],"parents":[2147483647,0,0,1,1,2,2,3,3,4,4,5,5,6,6,7,7,8,8,9,9,10,10,13,13,14,14],"right_children":[2,4,6,8,10,12,14,16,18,20,22,-1,-1,24,26,-1,-1,-1,-1,-1,-1,-1,-1,-1,-1,-1,-1],"split_conditions":[1.701E4,1.0015E4,1.3401E4,1.5388E4,1.52E4,1.0947E4,2.0379E4,7.237E3,7.049E3,1.2267E4,1.2628E4,3.0787647E1,2.2346162E2,1.0965E4,1.8581E4,-2.4428223E1,-1.7245055E2,-3.4453712E1,3.6332276E0,-2.4658123E1,9.3712166E1,-1.2149894E2,-2.6902433E1,2.2913818E1,9.432787E1,-3.5104347E1,1.9783278E1],"split_indices":[0,0,2,5,2,2,2,5,0,3,5,0,0,3,0,0,0,0,0,0,0,0,0,0,0,0,0],"split_type":[0,0,0,0,0,0,0,0,0,0,0,0,0,0,0,0,0,0,0,0,0,0,0,0,0,0,0],"sum_hessian":[6.4E1,4.6E1,1.8E1,1E1,3.6E1,9E0,9E0,8E0,2E0,2.5E1,1.1E1,1E0,8E0,5E0,4E0,1E0,7E0,1E0,1E0,1.6E1,9E0,6E0,5E0,1E0,4E0,1E0,3E0],"tree_param":{"num_deleted":"0","num_feature":"6","num_nodes":"27","size_leaf_vector":"1"}},{"base_weights":[3.977673E1,-7.183738E2,2.4456797E3,-2.1655662E3,-1.0623397E2,2.8609458E3,1.9041407E1,-1.408849E3,-1.774287E2,2.1287822E2,-1.8968307E3,3.0017944E1,2.9886558E3,-7.749038E1,3.5424073E0,-4.3910805E1,5.6024517E1,-1.2313967E2,2.3324585E1,1.8413324E2,9.338479E1],"categories":[],"categories_nodes":[],"categories_segments":[],"categories_sizes":[],"default_left":[0,0,0,0,0,0,0,0,0,0,0,0,0,0,0,0,0,0,0,0,0],"id":14,"left_children":[1,3,5,7,9,11,-1,13,-1,15,17,-1,19,-1,-1,-1,-1,-1,-1,-1,-1],"loss_changes":[1.29439464E8,4.760768E7,1.3487344E7,1.1745328E7,2.2688444E7,2.247528E6,0E0,2.612714E6,0E0,3.4653904E7,9.17419E6,0E0,3.235328E6,0E0,0E0,0E0,0E0,0E0,0E0,0E0,0E0],"parents":[2147483647,0,0,1,1,2,2,3,3,4,4,5,5,7,7,9,9,10,10,12,12],"right_children":[2,4,6,8,10,12,-1,14,-1,16,18,-1,20,-1,-1,-1,-1,-1,-1,-1,-1],"split_conditions":[1.701E4,1.0792E4,2.0379E4,1.276E4,1.999E4,1.0947E4,1.9041407E1,1.6611E4,-1.774287E2,1.2181E4,1.5189E4,3.0017944E1,1.2965E4,-7.749038E1,3.5424073E0,-4.3910805E1,5.6024517E1,-1.2313967E2,2.3324585E1,1.8413324E2,9.338479E1],"split_indices":[0,0,2,2,2,2,0,3,0,4,0,0,2,0,0,0,0,0,0,0,0],"split_type":[0,0,0,0,0,0,0,0,0,0,0,0,0,0,0,0,0,0,0,0,0],"sum_hessian":[6.9E1,5.3E1,1.6E1,1.5E1,3.8E1,1.3E1,3E0,1.1E1,4E0,3.3E1,5E0,1E0,1.2E1,1E1,1E0,1.5E1,1.8E1,4E0,1E0,6E0,6E0],"tree_param":{"num_deleted":"0","num_feature":"6","num_nodes":"21","size_leaf_vector":"1"}},{"base_weights":[-7.6476295E1,-9.69177E2,2.5066855E3,-1.7147588E3,2.1309877E2,3.7567158E3,1.13099E3,-1.8411389E3,5.5075684E1,1.5289258E2,-2.4728845E2,2.9267506E1,2.039984E2,2.0032229E3,2.1563086E2,4.7237144E0,-9.889436E1,3.5447353E1,-4.320857E1,2.0006348E1,1.1519826E2,-3.0813414E1,3.9282375E1],"categories":[],"categories_nodes":[],"categories_segments":[],"categories_sizes":[],"default_left":[0,0,0,0,0,0,0,0,0,0,0,0,0,0,0,0,0,0,0,0,0,0,0],"id":15,"left_children":[1,3,5,7,9,11,13,15,-1,-1,17,-1,-1,19,21,-1,-1,-1,-1,-1,-1,-1,-1],"loss_changes":[1.6154277E8,4.6202536E7,2.6705096E7,1.3417512E7,2.8259616E7,6.838136E6,7.552106E6,8.392312E6,0E0,0E0,1.1820473E7,0E0,0E0,1.488716E6,3.3293475E6,0E0,0E0,0E0,0E0,0E0,0E0,0E0,0E0],"parents":[2147483647,0,0,1,1,2,2,3,3,4,4,5,5,6,6,7,7,10,10,13,13,14,14],"right_children":[2,4,6,8,10,12,14,16,-1,-1,18,-1,-1,20,22,-1,-1,-1,-1,-1,-1,-1,-1],"split_conditions":[1.701E4,1.276E4,1.3401E4,2.1247E4,1.3401E4,1.0947E4,1.3401E4,7.962E3,5.5075684E1,1.5289258E2,1.0895E4,2.9267506E1,2.039984E2,1.0965E4,1.5175E4,4.7237144E0,-9.889436E1,3.5447353E1,-4.320857E1,2.0006348E1,1.1519826E2,-3.0813414E1,3.9282375E1],"split_indices":[0,0,2,5,0,2,3,5,0,0,2,0,0,3,3,0,0,0,0,0,0,0,0],"split_type":[0,0,0,0,0,0,0,0,0,0,0,0,0,0,0,0,0,0,0,0,0,0,0],"sum_hessian":[6.8E1,5.1E1,1.7E1,3.1E1,2E1,8E0,9E0,3E1,1E0,2E0,1.8E1,1E0,7E0,4E0,5E0,2E0,2.8E1,7E0,1.1E1,1E0,3E0,2E0,3E0],"tree_param":{"num_deleted":"0","num_feature":"6","num_nodes":"23","size_leaf_vector":"1"}},{"base_weights":[2.0825699E1,-6.919983E2,3.1673962E3,-1.85854E3,1.9582292E2,1.425066E3,1.9302141E2,2.1182104E2,-2.1796853E3,1.0628655E3,-9.329335E2,1.3684913E1,1.6444834E3,-2.1998365E1,2.8786978E1,-1.4015628E2,-3.107105E1,1.1196084E2,-3.4373787E1,-7.851092E1,-3.5665805E0,1.95062E1,9.66281E1],"categories":[],"categories_nodes":[],"categories_segments":[],"categories_sizes":[],"default_left":[0,0,0,0,0,0,0,0,0,0,0,0,0,0,0,0,0,0,0,0,0,0,0],"id":16,"left_children":[1,3,5,7,9,11,-1,13,15,17,19,-1,21,-1,-1,-1,-1,-1,-1,-1,-1,-1,-1],"loss_changes":[1.4574069E8,5.5255016E7,8.98852E6,1.5754088E7,3.1330658E7,8.13058E5,0E0,1.202098E6,1.7687776E7,3.8601696E7,7.575197E6,0E0,6.91475E5,0E0,0E0,0E0,0E0,0E0,0E0,0E0,0E0,0E0,0E0],"parents":[2147483647,0,0,1,1,2,2,3,3,4,4,5,5,7,7,8,8,9,9,10,10,12,12],"right_children":[2,4,6,8,10,12,-1,14,16,18,20,-1,22,-1,-1,-1,-1,-1,-1,-1,-1,-1,-1],"split_conditions":[1.8944E4,1.1608E4,1.2759E4,7.962E3,1.701E4,1.999E4,1.9302141E2,9.498E3,1.5388E4,1.3754E4,1.5189E4,1.3684913E1,1.0792E4,-2.1998365E1,2.8786978E1,-1.4015628E2,-3.107105E1,1.1196084E2,-3.4373787E1,-7.851092E1,-3.5665805E0,1.95062E1,9.66281E1],"split_indices":[0,0,5,5,2,0,0,0,5,5,0,0,4,0,0,0,0,0,0,0,0,0,0],"split_type":[0,0,0,0,0,0,0,0,0,0,0,0,0,0,0,0,0,0,0,0,0,0,0],"sum_hessian":[6.3E1,5.2E1,1.1E1,2.2E1,3E1,4E0,7E0,3E0,1.9E1,1.7E1,1.3E1,1E0,3E0,1E0,2E0,1.3E1,6E0,1E1,7E0,7E0,6E0,1E0,2E0],"tree_param":{"num_deleted":"0","num_feature":"6","num_nodes":"23","size_leaf_vector":"1"}},{"base_weights":[-1.15973015E1,-1.2264648E3,1.1678799E3,-2.1645483E3,-5.084831E2,5.5825806E2,2.3917932E3,-2.4529634E3,-2.893727E2,-1.0957726E3,2.114618E3,1.2804688E2,1.502116E2,2.8320098E3,1.3693962E1,-2.7458546E1,-1.3894023E2,-2.8405958E1,6.703003E0,7.25903E1,-7.661184E1,3.9396974E-1,1.4071188E2,5.781018E1,-2.176852E1,3.8098415E1,1.4977594E2],"categories":[],"categories_nodes":[],"categories_segments":[],"categories_sizes":[],"default_left":[0,0,0,0,0,0,0,0,0,0,0,0,0,0,0,0,0,0,0,0,0,0,0,0,0,0,0],"id":17,"left_children":[1,3,5,7,9,11,13,15,17,19,21,-1,23,25,-1,-1,-1,-1,-1,-1,-1,-1,-1,-1,-1,-1,-1],"loss_changes":[9.600433E7,2.1125752E7,2.4032992E7,6.861772E6,3.3127532E7,1.9227788E7,9.480116E6,5.917976E6,4.302532E5,2.1127266E7,5.873488E6,0E0,1.2874284E7,7.63752E5,0E0,0E0,0E0,0E0,0E0,0E0,0E0,0E0,0E0,0E0,0E0,0E0,0E0],"parents":[2147483647,0,0,1,1,2,2,3,3,4,4,5,5,6,6,7,7,8,8,9,9,10,10,12,12,13,13],"right_children":[2,4,6,8,10,12,14,16,18,20,22,-1,24,26,-1,-1,-1,-1,-1,-1,-1,-1,-1,-1,-1,-1,-1],"split_conditions":[1.276E4,1.0015E4,1.8944E4,1.5388E4,1.5388E4,1.3754E4,1.3401E4,9.374E3,7.049E3,7.975E3,1.0862E4,1.2804688E2,1.0792E4,1.0677E4,1.3693962E1,-2.7458546E1,-1.3894023E2,-2.8405958E1,6.703003E0,7.25903E1,-7.661184E1,3.9396974E-1,1.4071188E2,5.781018E1,-2.176852E1,3.8098415E1,1.4977594E2],"split_indices":[0,0,0,5,4,0,3,3,0,5,0,0,3,5,0,0,0,0,0,0,0,0,0,0,0,0,0],"split_type":[0,0,0,0,0,0,0,0,0,0,0,0,0,0,0,0,0,0,0,0,0,0,0,0,0,0,0],"sum_hessian":[6.5E1,3.2E1,3.3E1,1.3E1,1.9E1,2.3E1,1E1,1.1E1,2E0,1.6E1,3E0,3E0,2E1,8E0,2E0,2E0,9E0,1E0,1E0,2E0,1.4E1,1E0,2E0,7E0,1.3E1,1E0,7E0],"tree_param":{"num_deleted":"0","num_feature":"6","num_nodes":"27","size_leaf_vector":"1"}},{"base_weights":[-1.2915497E0,-9.1637366E2,2.3881611E3,-2.4561387E3,-3.1827878E2,3.077349E3,-1.9197071E1,-4.6292515E1,-2.6502048E3,1.11635704E2,-1.1515845E3,3.4423074E3,5.917324E2,-3.329905E1,1.5449707E1,-5.5813606E1,-1.4335243E2,-4.1814007E1,5.646208E1,-1.0396233E2,-2.1392384E1,3.7145947E1,1.810084E2,5.372339E1,-9.343457E0],"categories":[],"categories_nodes":[],"categories_segments":[],"categories_sizes":[],"default_left":[0,0,0,0,0,0,0,0,0,0,0,0,0,0,0,0,0,0,0,0,0,0,0,0,0],"id":18,"left_children":[1,3,5,7,9,11,13,-1,15,17,19,21,23,-1,-1,-1,-1,-1,-1,-1,-1,-1,-1,-1,-1],"loss_changes":[1.4212734E8,4.2501776E7,2.9923272E7,1.407008E6,1.2667314E7,1.0663144E7,1.2671281E6,0E0,4.58456E5,2.4094876E7,7.166997E6,3.071888E6,1.3283605E6,0E0,0E0,0E0,0E0,0E0,0E0,0E0,0E0,0E0,0E0,0E0,0E0],"parents":[2147483647,0,0,1,1,2,2,3,3,4,4,5,5,6,6,8,8,9,9,10,10,11,11,12,12],"right_children":[2,4,6,8,10,12,14,-1,16,18,20,22,24,-1,-1,-1,-1,-1,-1,-1,-1,-1,-1,-1,-1],"split_conditions":[1.701E4,1.0677E4,2.0379E4,8.251E3,1.5926E4,1.7816E4,1.8581E4,-4.6292515E1,7.962E3,1.2181E4,1.2628E4,1.0677E4,1.7562E4,-3.329905E1,1.5449707E1,-5.5813606E1,-1.4335243E2,-4.1814007E1,5.646208E1,-1.0396233E2,-2.1392384E1,3.7145947E1,1.810084E2,5.372339E1,-9.343457E0],"split_indices":[0,0,2,4,2,5,0,0,0,4,5,5,0,0,0,0,0,0,0,0,0,0,0,0,0],"split_type":[0,0,0,0,0,0,0,0,0,0,0,0,0,0,0,0,0,0,0,0,0,0,0,0,0],"sum_hessian":[6.3E1,4.6E1,1.7E1,1.2E1,3.4E1,1.3E1,4E0,2E0,1E1,2.3E1,1.1E1,1.1E1,2E0,1E0,3E0,2E0,8E0,1.2E1,1.1E1,4E0,7E0,1E0,1E1,1E0,1E0],"tree_param":{"num_deleted":"0","num_feature":"6","num_nodes":"25","size_leaf_vector":"1"}},{"base_weights":[-1.1771779E1,-1.546769E3,5.001392E2,-2.0952861E3,7.902617E1,1.8860742E3,-1.8698503E2,-1.3374791E3,-1.3150902E2,2.4804102E1,-3.6437173E2,-2.8096777E2,2.8966357E3,-6.0545844E2,1.1964268E3,-1.7178125E1,-7.229357E1,-2.6300465E1,-1.0274171E0,5.2890106E1,-6.074016E1,-6.5271974E0,1.606204E2,-7.39882E1,3.6065014E1,9.22774E1,2.1892227E1],"categories":[],"categories_nodes":[],"categories_segments":[],"categories_sizes":[],"default_left":[0,0,0,0,0,0,0,0,0,0,0,0,0,0,0,0,0,0,0,0,0,0,0,0,0,0,0],"id":19,"left_children":[1,3,5,7,9,11,13,15,-1,-1,17,19,21,23,25,-1,-1,-1,-1,-1,-1,-1,-1,-1,-1,-1,-1],"loss_changes":[5.027786E7,1.4434008E7,4.6063524E7,1.346344E6,1.1053669E6,3.585273E7,1.9828784E7,2.57383E5,0E0,0E0,1.5591566E5,8.786166E6,1.0934256E7,3.1227156E7,3.13123E6,0E0,0E0,0E0,0E0,0E0,0E0,0E0,0E0,0E0,0E0,0E0,0E0],"parents":[2147483647,0,0,1,1,2,2,3,3,4,4,5,5,6,6,7,7,10,10,11,11,12,12,13,13,14,14],"right_children":[2,4,6,8,10,12,14,16,-1,-1,18,20,22,24,26,-1,-1,-1,-1,-1,-1,-1,-1,-1,-1,-1,-1],"split_conditions":[1.0677E4,1.6611E4,1.3401E4,8.997E3,8.816E3,1.0583E4,2.0249E4,9.374E3,-1.3150902E2,2.4804102E1,9.364E3,1.0306E4,7.61E3,1.5388E4,2.0379E4,-1.7178125E1,-7.229357E1,-2.6300465E1,-1.0274171E0,5.2890106E1,-6.074016E1,-6.5271974E0,1.606204E2,-7.39882E1,3.6065014E1,9.22774E1,2.1892227E1],"split_indices":[1,4,2,1,1,2,1,3,0,0,1,4,4,4,2,0,0,0,0,0,0,0,0,0,0,0,0],"split_type":[0,0,0,0,0,0,0,0,0,0,0,0,0,0,0,0,0,0,0,0,0,0,0,0,0,0,0],"sum_hessian":[6.2E1,1.5E1,4.7E1,1.1E1,4E0,1.5E1,3.2E1,6E0,5E0,2E0,2E0,5E0,1E1,2.5E1,7E0,1E0,5E0,1E0,1E0,2E0,3E0,1E0,9E0,1.5E1,1E1,3E0,4E0],"tree_param":{"num_deleted":"0","num_feature":"6","num_nodes":"27","size_leaf_vector":"1"}},{"base_weights":[6.492305E1,-1.3774987E3,1.388637E3,-2.0923477E3,-7.030207E2,-1.2279155E3,1.6556244E3,-1.084803E3,-2.7554597E3,1.3975317E2,-1.2062848E3,-7.761836E1,-6.3640137E0,2.5448608E3,9.839608E2,-6.470278E1,9.4991455E0,-1.9217848E1,-1.5019014E2,-4.223195E1,3.0432852E1,-9.5235187E-1,-1.02579544E2,2.4678223E0,1.4783325E2,-1.9113808E1,9.27064E1],"categories":[],"categories_nodes":[],"categories_segments":[],"categories_sizes":[],"default_left":[0,0,0,0,0,0,0,0,0,0,0,0,0,0,0,0,0,0,0,0,0,0,0,0,0,0,0],"id":20,"left_children":[1,3,5,7,9,11,13,15,17,19,21,-1,-1,23,25,-1,-1,-1,-1,-1,-1,-1,-1,-1,-1,-1,-1],"loss_changes":[1.355676E8,1.492212E7,2.7880664E7,7.70072E6,8.227203E6,1.230826E6,1.7803056E7,2.379868E6,4.145096E6,4.2067785E6,1.2003872E7,0E0,0E0,1.4241312E7,2.567473E7,0E0,0E0,0E0,0E0,0E0,0E0,0E0,0E0,0E0,0E0,0E0,0E0],"parents":[2147483647,0,0,1,1,2,2,3,3,4,4,5,5,6,6,7,7,8,8,9,9,10,10,13,13,14,14],"right_children":[2,4,6,8,10,12,14,16,18,20,22,-1,-1,24,26,-1,-1,-1,-1,-1,-1,-1,-1,-1,-1,-1,-1],"split_conditions":[1.2674E4,1.0015E4,8.642E3,9.364E3,1.1143E4,1.3932E4,1.4587E4,1.713E4,8.251E3,7.962E3,1.0862E4,-7.761836E1,-6.3640137E0,1.0862E4,1.6611E4,-6.470278E1,9.4991455E0,-1.9217848E1,-1.5019014E2,-4.223195E1,3.0432852E1,-9.5235187E-1,-1.02579544E2,2.4678223E0,1.4783325E2,-1.9113808E1,9.27064E1],"split_indices":[0,0,5,1,0,0,1,5,4,4,4,0,0,1,0,0,0,0,0,0,0,0,0,0,0,0,0],"split_type":[0,0,0,0,0,0,0,0,0,0,0,0,0,0,0,0,0,0,0,0,0,0,0,0,0,0,0],"sum_hessian":[6.9E1,3.3E1,3.6E1,1.5E1,1.8E1,3E0,3.3E1,7E0,8E0,7E0,1.1E1,2E0,1E0,1.3E1,2E1,6E0,1E0,1E0,7E0,2E0,5E0,5E0,6E0,2E0,1.1E1,8E0,1.2E1],"tree_param":{"num_deleted":"0","num_feature":"6","num_nodes":"27","size_leaf_vector":"1"}},{"base_weights":[-2.1860608E2,-1.2880829E3,1.2799861E2,-1.7503734E3,7.903105E1,1.6632756E3,-5.774994E2,-4.6409018E2,-1.9612211E3,2.3777864E1,-3.4383887E2,-3.885082E2,2.379579E3,-1.1098842E3,6.849659E2,2.8178198E1,-6.2984962E1,-6.2486736E1,-1.2113802E2,-2.4025366E1,-1.7625488E0,3.7321266E1,-4.2942394E1,5.2580934E0,1.5630168E2,-7.523338E1,6.0112934E0,8.0909454E1,-3.9737165E0],"categories":[],"categories_nodes":[],"categories_segments":[],"categories_sizes":[],"default_left":[0,0,0,0,0,0,0,0,0,0,0,0,0,0,0,0,0,0,0,0,0,0,0,0,0,0,0,0,0],"id":21,"left_children":[1,3,5,7,9,11,13,15,17,-1,19,21,23,25,27,-1,-1,-1,-1,-1,-1,-1,-1,-1,-1,-1,-1,-1,-1],"loss_changes":[2.4259442E7,1.0250396E7,5.511728E7,2.344332E6,1.0019101E6,2.4439684E7,2.4284338E7,3.162754E6,2.55984E5,0E0,1.0958431E5,3.310087E6,2.0044256E7,1.2321578E7,7.975931E6,0E0,0E0,0E0,0E0,0E0,0E0,0E0,0E0,0E0,0E0,0E0,0E0,0E0,0E0],"parents":[2147483647,0,0,1,1,2,2,3,3,4,4,5,5,6,6,7,7,8,8,10,10,11,11,12,12,13,13,14,14],"right_children":[2,4,6,8,10,12,14,16,18,-1,20,22,24,26,28,-1,-1,-1,-1,-1,-1,-1,-1,-1,-1,-1,-1,-1,-1],"split_conditions":[1.0677E4,1.6611E4,1.2759E4,7.61E3,8.816E3,9.498E3,1.8944E4,9.498E3,8.997E3,2.3777864E1,9.364E3,1.0965E4,1.0895E4,1.9933E4,1.3401E4,2.8178198E1,-6.2984962E1,-6.2486736E1,-1.2113802E2,-2.4025366E1,-1.7625488E0,3.7321266E1,-4.2942394E1,5.2580934E0,1.5630168E2,-7.523338E1,6.0112934E0,8.0909454E1,-3.9737165E0],"split_indices":[1,4,2,2,1,3,1,1,1,0,1,1,1,4,3,0,0,0,0,0,0,0,0,0,0,0,0,0,0],"split_type":[0,0,0,0,0,0,0,0,0,0,0,0,0,0,0,0,0,0,0,0,0,0,0,0,0,0,0,0,0],"sum_hessian":[6.4E1,1.5E1,4.9E1,1.1E1,4E0,1.5E1,3.4E1,2E0,9E0,2E0,2E0,4E0,1.1E1,2.4E1,1E1,1E0,1E0,5E0,4E0,1E0,1E0,1E0,3E0,3E0,8E0,1.8E1,6E0,4E0,6E0],"tree_param":{"num_deleted":"0","num_feature":"6","num_nodes":"29","size_leaf_vector":"1"}},{"base_weights":[2.4636087E1,-1.0244635E3,5.486503E2,-1.3057328E3,2.4925235E2,1.6734855E3,-1.0704463E2,-8.221089E2,-1.4568974E2,-1.6476001E2,4.7632545E1,-1.0990995E3,2.9203208E3,1.5520659E2,-3.2481387E2,-5.5611958E1,-7.659269E0,-2.3424732E1,4.6324873E0,-1.51967945E1,-7.103487E1,1.9932276E1,1.5566618E2,-4.9917442E1,4.340466E1],"categories":[],"categories_nodes":[],"categories_segments":[],"categories_sizes":[],"default_left":[0,0,0,0,0,0,0,0,0,0,0,0,0,0,0,0,0,0,0,0,0,0,0,0,0],"id":22,"left_children":[1,3,5,7,9,11,13,15,-1,17,-1,19,21,-1,23,-1,-1,-1,-1,-1,-1,-1,-1,-1,-1],"loss_changes":[3.7944604E7,8.56537E6,3.4106376E7,1.238079E7,1.6130372E6,6.1977996E7,2.198713E7,2.934821E6,0E0,3.5614294E5,0E0,1.1025365E6,4.599168E6,0E0,2.416713E7,0E0,0E0,0E0,0E0,0E0,0E0,0E0,0E0,0E0,0E0],"parents":[2147483647,0,0,1,1,2,2,3,3,4,4,5,5,6,6,7,7,9,9,11,11,12,12,14,14],"right_children":[2,4,6,8,10,12,14,16,-1,18,-1,20,22,-1,24,-1,-1,-1,-1,-1,-1,-1,-1,-1,-1],"split_conditions":[1.2181E4,1.8944E4,1.3401E4,1.3784E4,1.0583E4,1.0583E4,1.2256E4,1.0677E4,-1.4568974E2,1.2181E4,4.7632545E1,8.251E3,1.0947E4,1.5520659E2,1.8944E4,-5.5611958E1,-7.659269E0,-2.3424732E1,4.6324873E0,-1.51967945E1,-7.103487E1,1.9932276E1,1.5566618E2,-4.9917442E1,4.340466E1],"split_indices":[1,4,2,2,1,3,1,1,0,2,0,4,2,0,1,0,0,0,0,0,0,0,0,0,0],"split_type":[0,0,0,0,0,0,0,0,0,0,0,0,0,0,0,0,0,0,0,0,0,0,0,0,0],"sum_hessian":[6.7E1,2.2E1,4.5E1,1.8E1,4E0,1.6E1,2.9E1,1.5E1,3E0,3E0,1E0,5E0,1.1E1,1E0,2.8E1,1E1,5E0,1E0,2E0,2E0,3E0,1E0,1E1,1.8E1,1E1],"tree_param":{"num_deleted":"0","num_feature":"6","num_nodes":"25","size_leaf_vector":"1"}},{"base_weights":[7.683496E1,-5.1551825E2,1.783809E3,-1.2229852E3,4.4057064E1,2.8751606E3,6.232114E2,2.12844E2,-1.4490018E3,1.5132642E2,-1.6314981E2,1.943396E1,1.5686931E2,1.1435645E3,-1.2585449E2,-1.21786375E1,2.2308691E1,-9.15003E1,-2.3999659E1,-8.4064095E1,5.787055E-1,-9.200391E0,7.229403E1,-3.3920288E1,9.094238E0],"categories":[],"categories_nodes":[],"categories_segments":[],"categories_sizes":[],"default_left":[0,0,0,0,0,0,0,0,0,0,0,0,0,0,0,0,0,0,0,0,0,0,0,0,0],"id":23,"left_children":[1,3,5,7,9,11,13,15,17,-1,19,-1,-1,21,23,-1,-1,-1,-1,-1,-1,-1,-1,-1,-1],"loss_changes":[7.0687656E7,2.0639696E7,2.1007336E7,7.7724E6,1.9033436E7,4.648728E6,4.0417102E6,5.346584E5,6.505532E6,0E0,7.711826E6,0E0,0E0,2.674132E6,9.7360025E5,0E0,0E0,0E0,0E0,0E0,0E0,0E0,0E0,0E0,0E0],"parents":[2147483647,0,0,1,1,2,2,3,3,4,4,5,5,6,6,7,7,8,8,10,10,13,13,14,14],"right_children":[2,4,6,8,10,12,14,16,18,-1,20,-1,-1,22,24,-1,-1,-1,-1,-1,-1,-1,-1,-1,-1],"split_conditions":[1.701E4,1.1608E4,1.3401E4,7.962E3,1.1738E4,1.0947E4,2.0128E4,9.498E3,1.4752E4,1.5132642E2,7.975E3,1.943396E1,1.5686931E2,1.3754E4,1.8581E4,-1.21786375E1,2.2308691E1,-9.15003E1,-2.3999659E1,-8.4064095E1,5.787055E-1,-9.200391E0,7.229403E1,-3.3920288E1,9.094238E0],"split_indices":[0,0,2,5,0,2,2,0,5,0,2,0,0,2,0,0,0,0,0,0,0,0,0,0,0],"split_type":[0,0,0,0,0,0,0,0,0,0,0,0,0,0,0,0,0,0,0,0,0,0,0,0,0],"sum_hessian":[6.8E1,5.1E1,1.7E1,2.2E1,2.9E1,8E0,9E0,3E0,1.9E1,1E0,2.8E1,1E0,7E0,5E0,4E0,1E0,2E0,1.3E1,6E0,2E0,2.6E1,1E0,4E0,1E0,3E0],"tree_param":{"num_deleted":"0","num_feature":"6","num_nodes":"25","size_leaf_vector":"1"}},{"base_weights":[6.805557E1,-8.6410394E2,1.0272183E3,-1.2034772E3,1.7461111E2,2.082201E3,4.5303525E2,-3.8854167E0,-1.3076206E3,2.111094E3,-6.802546E2,5.873698E1,2.5253333E3,-4.5153995E2,1.2444762E3,-1.187417E1,1.1582764E1,7.5696535E0,-6.9041046E1,1.4754326E2,1.07887945E1,-8.827152E1,2.8749243E1,2.7186499E1,-2.2781225E1,5.4133076E1,1.3914297E2,-6.8809044E1,1.3671178E1,8.859871E1,7.5792193E0],"categories":[],"categories_nodes":[],"categories_segments":[],"categories_sizes":[],"default_left":[0,0,0,0,0,0,0,0,0,0,0,0,0,0,0,0,0,0,0,0,0,0,0,0,0,0,0,0,0,0,0],"id":24,"left_children":[1,3,5,7,9,11,13,15,17,19,21,23,25,27,29,-1,-1,-1,-1,-1,-1,-1,-1,-1,-1,-1,-1,-1,-1,-1,-1],"loss_changes":[5.8109556E7,1.1843042E7,1.8440792E7,3.118152E6,1.6334978E7,9.714956E6,1.6312126E7,2.2007977E5,2.665456E6,4.138175E6,1.0550184E7,9.961219E5,3.30836E5,7.74992E6,6.649374E6,0E0,0E0,0E0,0E0,0E0,0E0,0E0,0E0,0E0,0E0,0E0,0E0,0E0,0E0,0E0,0E0],"parents":[2147483647,0,0,1,1,2,2,3,3,4,4,5,5,6,6,7,7,8,8,9,9,10,10,11,11,12,12,13,13,14,14],"right_children":[2,4,6,8,10,12,14,16,18,20,22,24,26,28,30,-1,-1,-1,-1,-1,-1,-1,-1,-1,-1,-1,-1,-1,-1,-1,-1],"split_conditions":[1.276E4,1.713E4,1.3754E4,7.962E3,1.7697E4,1.0862E4,1.701E4,9.498E3,6.55E3,1.1738E4,1.9933E4,1.4405E4,1.0965E4,1.2628E4,1.3401E4,-1.187417E1,1.1582764E1,7.5696535E0,-6.9041046E1,1.4754326E2,1.07887945E1,-8.827152E1,2.8749243E1,2.7186499E1,-2.2781225E1,5.4133076E1,1.3914297E2,-6.8809044E1,1.3671178E1,8.859871E1,7.5792193E0],"split_indices":[0,3,1,1,3,1,0,0,5,0,5,0,1,5,3,0,0,0,0,0,0,0,0,0,0,0,0,0,0,0,0],"split_type":[0,0,0,0,0,0,0,0,0,0,0,0,0,0,0,0,0,0,0,0,0,0,0,0,0,0,0,0,0,0,0],"sum_hessian":[6.3E1,3.2E1,3.1E1,2.4E1,8E0,1E1,2.1E1,2E0,2.2E1,2E0,6E0,2E0,8E0,1E1,1.1E1,1E0,1E0,1E0,2.1E1,1E0,1E0,3E0,3E0,1E0,1E0,2E0,6E0,4E0,6E0,7E0,4E0],"tree_param":{"num_deleted":"0","num_feature":"6","num_nodes":"31","size_leaf_vector":"1"}},{"base_weights":[1.12035095E2,-6.434881E2,5.486873E2,-2.8506058E2,-1.22698364E2,2.1379417E3,2.3089192E0,-7.0055194E2,8.798943E1,-3.0565138E1,2.8168076E3,-1.5200071E3,6.3651105E2,9.329841E0,-5.6217945E1,4.4761475E1,1.61897E2,1.4277849E1,-1.0035464E2,-6.583177E1,4.3695847E1],"categories":[],"categories_nodes":[],"categories_segments":[],"categories_sizes":[],"default_left":[0,0,0,0,0,0,0,0,0,0,0,0,0,0,0,0,0,0,0,0,0],"id":25,"left_children":[1,3,5,7,-1,9,11,13,-1,-1,15,17,19,-1,-1,-1,-1,-1,-1,-1,-1],"loss_changes":[2.2456434E7,1.5523609E7,3.7333436E7,1.9924402E7,0E0,2.2251968E7,3.2827552E7,7.353418E6,0E0,0E0,4.384448E6,9.367784E6,1.2279152E7,0E0,0E0,0E0,0E0,0E0,0E0,0E0,0E0],"parents":[2147483647,0,0,1,1,2,2,3,3,5,5,6,6,7,7,10,10,11,11,12,12],"right_children":[2,4,6,8,-1,10,12,14,-1,-1,16,18,20,-1,-1,-1,-1,-1,-1,-1,-1],"split_conditions":[1.2181E4,1.1143E4,1.3754E4,1.0895E4,-1.22698364E2,1.1738E4,1.1143E4,8.997E3,8.798943E1,-3.0565138E1,8.728E3,1.1143E4,1.0862E4,9.329841E0,-5.6217945E1,4.4761475E1,1.61897E2,1.4277849E1,-1.0035464E2,-6.583177E1,4.3695847E1],"split_indices":[1,1,1,1,0,2,5,2,0,0,5,3,2,0,0,0,0,0,0,0,0],"split_type":[0,0,0,0,0,0,0,0,0,0,0,0,0,0,0,0,0,0,0,0,0],"sum_hessian":[6.6E1,2.4E1,4.2E1,2.1E1,3E0,1E1,3.2E1,1.8E1,3E0,2E0,8E0,9E0,2.3E1,6E0,1.2E1,2E0,6E0,2E0,7E0,2E0,2.1E1],"tree_param":{"num_deleted":"0","num_feature":"6","num_nodes":"21","size_leaf_vector":"1"}},{"base_weights":[-1.0192496E2,-4.9777728E2,1.850616E3,-1.0162235E3,1.442693E2,2.0312393E3,1.1095704E0,-6.559941E2,-1.7838706E3,1.3997688E3,-3.2587628E2,2.6349674E1,1.1707133E2,-4.3985004E1,2.8530396E1,-1.3333707E2,-2.7211288E1,8.85886E1,-2.080625E1,-5.9203228E1,8.064626E0],"categories":[],"categories_nodes":[],"categories_segments":[],"categories_sizes":[],"default_left":[0,0,0,0,0,0,0,0,0,0,0,0,0,0,0,0,0,0,0,0,0],"id":26,"left_children":[1,3,5,7,9,11,-1,13,15,17,19,-1,-1,-1,-1,-1,-1,-1,-1,-1,-1],"loss_changes":[5.0387936E7,1.8121408E7,3.58774E6,7.125662E6,1.5212841E7,3.432064E6,0E0,6.538724E6,8.398704E6,5.465906E6,8.13455E6,0E0,0E0,0E0,0E0,0E0,0E0,0E0,0E0,0E0,0E0],"parents":[2147483647,0,0,1,1,2,2,3,3,4,4,5,5,7,7,8,8,9,9,10,10],"right_children":[2,4,6,8,10,12,-1,14,16,18,20,-1,-1,-1,-1,-1,-1,-1,-1,-1,-1],"split_conditions":[1.999E4,1.276E4,2.3541E4,1.52E4,1.2225E4,1.1143E4,1.1095704E0,1.6611E4,1.2181E4,1.3784E4,1.5113E4,2.6349674E1,1.1707133E2,-4.3985004E1,2.8530396E1,-1.3333707E2,-2.7211288E1,8.85886E1,-2.080625E1,-5.9203228E1,8.064626E0],"split_indices":[0,0,1,2,1,3,0,3,0,3,0,0,0,0,0,0,0,0,0,0,0],"split_type":[0,0,0,0,0,0,0,0,0,0,0,0,0,0,0,0,0,0,0,0,0],"sum_hessian":[6.3E1,5.3E1,1E1,2.9E1,2.4E1,9E0,1E0,2.1E1,8E0,6E0,1.8E1,2E0,7E0,1.8E1,3E0,4E0,4E0,5E0,1E0,6E0,1.2E1],"tree_param":{"num_deleted":"0","num_feature":"6","num_nodes":"21","size_leaf_vector":"1"}},{"base_weights":[3.1218142E1,-9.942363E2,3.595485E2,-1.0848675E2,-5.8736273E2,9.012314E2,-5.0878888E2,3.0478434E1,-8.376487E2,-4.3678302E2,1.421186E3,-1.4657102E3,6.903956E2,-5.1831726E1,5.242676E0,3.6388172E1,-5.199203E1,-1.1363642E1,1.0566662E2,-3.4878384E1,-9.573654E1,-3.1045776E1,4.5254375E1],"categories":[],"categories_nodes":[],"categories_segments":[],"categories_sizes":[],"default_left":[0,0,0,0,0,0,0,0,0,0,0,0,0,0,0,0,0,0,0,0,0,0,0],"id":27,"left_children":[1,3,5,-1,7,9,11,-1,13,15,17,19,21,-1,-1,-1,-1,-1,-1,-1,-1,-1,-1],"loss_changes":[2.3588934E7,6.856328E6,2.53878E7,0E0,4.7046565E6,2.3579078E7,2.5109952E7,0E0,2.359229E6,7.779643E6,2.7863692E7,2.803286E6,3.377261E6,0E0,0E0,0E0,0E0,0E0,0E0,0E0,0E0,0E0,0E0],"parents":[2147483647,0,0,1,1,2,2,4,4,5,5,6,6,8,8,9,9,10,10,11,11,12,12],"right_children":[2,4,6,-1,8,10,12,-1,14,16,18,20,22,-1,-1,-1,-1,-1,-1,-1,-1,-1,-1],"split_conditions":[1.0862E4,8.456E3,1.5926E4,-1.0848675E2,8.251E3,1.0583E4,1.8944E4,3.0478434E1,1.6611E4,1.0306E4,1.0583E4,1.7816E4,1.713E4,-5.1831726E1,5.242676E0,3.6388172E1,-5.199203E1,-1.1363642E1,1.0566662E2,-3.4878384E1,-9.573654E1,-3.1045776E1,4.5254375E1],"split_indices":[1,3,2,0,2,3,1,0,3,5,5,2,2,0,0,0,0,0,0,0,0,0,0],"split_type":[0,0,0,0,0,0,0,0,0,0,0,0,0,0,0,0,0,0,0,0,0,0,0],"sum_hessian":[6.8E1,1.6E1,5.2E1,3E0,1.3E1,3.2E1,2E1,2E0,1.1E1,9E0,2.3E1,1.1E1,9E0,9E0,2E0,3E0,6E0,7E0,1.6E1,5E0,6E0,1E0,8E0],"tree_param":{"num_deleted":"0","num_feature":"6","num_nodes":"23","size_leaf_vector":"1"}},{"base_weights":[1.137198E2,-1.5187837E3,7.3651434E2,-1.7917603E3,-1.15426025E2,3.6382913E2,1.7931938E3,-1.5858806E1,-1.9942212E3,1.3594271E1,-3.193401E1,-1.4300041E2,1.2715276E3,1.9346796E3,5.921289E0,-3.0095688E1,-1.0963242E2,1.3342288E1,-4.9802425E1,1.6948631E2,2.891218E1,2.3899641E1,1.1026387E2],"categories":[],"categories_nodes":[],"categories_segments":[],"categories_sizes":[],"default_left":[0,0,0,0,0,0,0,0,0,0,0,0,0,0,0,0,0,0,0,0,0,0,0],"id":28,"left_children":[1,3,5,7,9,11,13,-1,15,-1,-1,17,19,21,-1,-1,-1,-1,-1,-1,-1,-1,-1],"loss_changes":[6.6188324E7,6.688692E6,1.7856602E7,3.845664E6,9.842971E5,1.6743572E7,2.614348E6,0E0,2.271752E6,0E0,0E0,8.656635E6,1.7130584E7,3.281832E6,0E0,0E0,0E0,0E0,0E0,0E0,0E0,0E0,0E0],"parents":[2147483647,0,0,1,1,2,2,3,3,4,4,5,5,6,6,8,8,11,11,12,12,13,13],"right_children":[2,4,6,8,10,12,14,-1,16,-1,-1,18,20,22,-1,-1,-1,-1,-1,-1,-1,-1,-1],"split_conditions":[1.0792E4,1.5388E4,1.8581E4,8.251E3,1.0306E4,1.5926E4,1.701E4,-1.5858806E1,8.251E3,1.3594271E1,-3.193401E1,1.276E4,1.7697E4,1.0677E4,5.921289E0,-3.0095688E1,-1.0963242E2,1.3342288E1,-4.9802425E1,1.6948631E2,2.891218E1,2.3899641E1,1.1026387E2],"split_indices":[0,5,0,5,0,4,3,0,4,0,0,4,4,5,0,0,0,0,0,0,0,0,0],"split_type":[0,0,0,0,0,0,0,0,0,0,0,0,0,0,0,0,0,0,0,0,0,0,0],"sum_hessian":[6.3E1,1.7E1,4.6E1,1.4E1,3E0,3.5E1,1.1E1,2E0,1.2E1,2E0,1E0,2.3E1,1.2E1,1E1,1E0,2E0,1E1,1.6E1,7E0,2E0,1E1,2E0,8E0],"tree_param":{"num_deleted":"0","num_feature":"6","num_nodes":"23","size_leaf_vector":"1"}},{"base_weights":[-1.1032346E2,-1.1677175E3,5.807779E2,-1.7674478E3,-5.3012146E2,-7.656885E1,7.2116046E2,-9.018677E0,-1.8756555E3,5.8295532E1,-1.0522733E3,1.4001104E3,2.3062808E2,-4.0371826E1,-1.05768875E2,-2.0122005E1,4.801675E1,-1.5534668E0,-5.9686054E1,9.715488E1,-1.4583916E1,7.845547E1,-1.1607622E0],"categories":[],"categories_nodes":[],"categories_segments":[],"categories_sizes":[],"default_left":[0,0,0,0,0,0,0,0,0,0,0,0,0,0,0,0,0,0,0,0,0,0,0],"id":29,"left_children":[1,3,5,7,9,-1,11,-1,13,15,17,19,21,-1,-1,-1,-1,-1,-1,-1,-1,-1,-1],"loss_changes":[5.1831836E7,9.769836E6,1.3854289E7,2.065948E6,4.6699885E6,0E0,1.333202E7,0E0,1.620952E6,3.711291E6,1.118489E6,1.6183288E7,8.530541E6,0E0,0E0,0E0,0E0,0E0,0E0,0E0,0E0,0E0,0E0],"parents":[2147483647,0,0,1,1,2,2,3,3,4,4,6,6,8,8,9,9,10,10,11,11,12,12],"right_children":[2,4,6,8,10,-1,12,-1,14,16,18,20,22,-1,-1,-1,-1,-1,-1,-1,-1,-1,-1],"split_conditions":[1.247E4,1.0015E4,7.975E3,7.237E3,1.0965E4,-7.656885E1,1.2965E4,-9.018677E0,7.61E3,1.0895E4,1.0583E4,1.7816E4,1.3754E4,-4.0371826E1,-1.05768875E2,-2.0122005E1,4.801675E1,-1.5534668E0,-5.9686054E1,9.715488E1,-1.4583916E1,7.845547E1,-1.1607622E0],"split_indices":[0,0,2,5,0,0,2,0,0,0,5,5,0,0,0,0,0,0,0,0,0,0,0],"split_type":[0,0,0,0,0,0,0,0,0,0,0,0,0,0,0,0,0,0,0,0,0,0,0],"sum_hessian":[6.9E1,2.7E1,4.2E1,1.3E1,1.4E1,2E0,4E1,1E0,1.2E1,7E0,7E0,1.6E1,2.4E1,3E0,9E0,5E0,2E0,1E0,6E0,1.2E1,4E0,3E0,2.1E1],"tree_param":{"num_deleted":"0","num_feature":"6","num_nodes":"23","size_leaf_vector":"1"}},{"base_weights":[5.0978065E0,-8.761063E2,9.412179E2,-6.4669867E2,-2.0773308E3,4.4364856E2,1.0817448E2,-9.8015656E2,1.2166221E3,-1.1451687E2,-3.0632618E1,1.1262301E2,1.7682657E2,1.410691E1,-5.7853527E1,1.3370732E2,9.185218E0,-3.2120937E1,2.2778522E1],"categories":[],"categories_nodes":[],"categories_segments":[],"categories_sizes":[],"default_left":[0,0,0,0,0,0,0,0,0,0,0,0,0,0,0,0,0,0,0],"id":30,"left_children":[1,3,5,7,9,11,-1,13,15,-1,-1,-1,17,-1,-1,-1,-1,-1,-1],"loss_changes":[5.4443944E7,8.025976E6,1.8501446E7,1.9832648E7,1.56752E5,1.1184843E7,0E0,6.132712E6,7.0362615E6,0E0,0E0,0E0,5.316578E6,0E0,0E0,0E0,0E0,0E0,0E0],"parents":[2147483647,0,0,1,1,2,2,3,3,4,4,5,5,7,7,8,8,12,12],"right_children":[2,4,6,8,10,12,-1,14,16,-1,-1,-1,18,-1,-1,-1,-1,-1,-1],"split_conditions":[1.276E4,1.8944E4,1.8944E4,1.713E4,2.1247E4,1.3401E4,1.0817448E2,7.962E3,1.3754E4,-1.1451687E2,-3.0632618E1,1.1262301E2,1.0895E4,1.410691E1,-5.7853527E1,1.3370732E2,9.185218E0,-3.2120937E1,2.2778522E1],"split_indices":[0,3,0,3,3,0,0,5,5,0,0,0,5,0,0,0,0,0,0],"split_type":[0,0,0,0,0,0,0,0,0,0,0,0,0,0,0,0,0,0,0],"sum_hessian":[6.4E1,3.3E1,3.1E1,2.9E1,4E0,2.3E1,8E0,2.5E1,4E0,3E0,1E0,2E0,2.1E1,3E0,2.2E1,1E0,3E0,5E0,1.6E1],"tree_param":{"num_deleted":"0","num_feature":"6","num_nodes":"19","size_leaf_vector":"1"}},{"base_weights":[-1.0997544E1,-1.1548944E3,4.696591E2,-1.4602268E3,-1.4819255E2,7.3446454E2,-8.1828394E2,-9.811909E2,-1.1589337E2,6.110332E1,-2.9866796E1,3.4167215E2,1.8103638E3,-8.7461586E1,2.763205E2,-1.4115397E1,-5.4636837E1,-1.4596436E1,1.1117175E1,-1.1716576E1,6.6060295E1,1.23609276E2,1.7064698E0,-3.1587378E1,3.306372E1],"categories":[],"categories_nodes":[],"categories_segments":[],"categories_sizes":[],"default_left":[0,0,0,0,0,0,0,0,0,0,0,0,0,0,0,0,0,0,0,0,0,0,0,0,0],"id":31,"left_children":[1,3,5,7,9,11,13,15,-1,17,-1,19,21,-1,23,-1,-1,-1,-1,-1,-1,-1,-1,-1,-1],"loss_changes":[3.902992E7,6.23856E6,1.7653716E7,4.29918E6,6.005223E5,1.7130862E7,9.654523E6,6.27E5,0E0,3.495232E5,0E0,1.836448E7,1.2846684E7,0E0,2.16558E6,0E0,0E0,0E0,0E0,0E0,0E0,0E0,0E0,0E0,0E0],"parents":[2147483647,0,0,1,1,2,2,3,3,4,4,5,5,6,6,7,7,9,9,11,11,12,12,14,14],"right_children":[2,4,6,8,10,12,14,16,-1,18,-1,20,22,-1,24,-1,-1,-1,-1,-1,-1,-1,-1,-1,-1],"split_conditions":[1.0895E4,1.5388E4,2.0128E4,1.4405E4,1.5189E4,1.5388E4,1.5189E4,8.251E3,-1.1589337E2,7.049E3,-2.9866796E1,1.701E4,1.701E4,-8.7461586E1,1.0895E4,-1.4115397E1,-5.4636837E1,-1.4596436E1,1.1117175E1,-1.1716576E1,6.6060295E1,1.23609276E2,1.7064698E0,-3.1587378E1,3.306372E1],"split_indices":[0,5,2,3,2,3,0,5,0,0,0,0,2,0,5,0,0,0,0,0,0,0,0,0,0],"split_type":[0,0,0,0,0,0,0,0,0,0,0,0,0,0,0,0,0,0,0,0,0,0,0,0,0],"sum_hessian":[6.9E1,2E1,4.9E1,1.5E1,5E0,4.1E1,8E0,1.1E1,4E0,4E0,1E0,3.1E1,1E1,4E0,4E0,2E0,9E0,1E0,3E0,2E1,1.1E1,7E0,3E0,1E0,3E0],"tree_param":{"num_deleted":"0","num_feature":"6","num_nodes":"25","size_leaf_vector":"1"}},{"base_weights":[8.0443405E1,-1.0252291E3,7.068382E2,-7.125288E2,-2.1335247E3,9.6593085E2,-8.006419E2,-1.201022E3,7.2242294E1,-1.1878523E2,-2.9120117E1,-5.452037E2,1.3870735E3,-7.72372E1,1.436206E2,-7.493809E1,-7.820862E0,-2.3472609E1,2.9974415E1,5.149839E1,-5.7119545E1,-3.3523952E1,8.202615E1,3.010651E1,-3.0797705E1],"categories":[],"categories_nodes":[],"categories_segments":[],"categories_sizes":[],"default_left":[0,0,0,0,0,0,0,0,0,0,0,0,0,0,0,0,0,0,0,0,0,0,0,0,0],"id":32,"left_children":[1,3,5,7,9,11,13,15,17,-1,-1,19,21,-1,23,-1,-1,-1,-1,-1,-1,-1,-1,-1,-1],"loss_changes":[4.782062E7,7.14391E6,1.7958756E7,8.137226E6,4.9464E5,2.493956E7,5.140251E6,3.808834E6,2.851887E6,0E0,0E0,9.642677E6,1.6744508E7,0E0,1.7639738E6,0E0,0E0,0E0,0E0,0E0,0E0,0E0,0E0,0E0,0E0],"parents":[2147483647,0,0,1,1,2,2,3,3,4,4,5,5,6,6,7,7,8,8,11,11,12,12,14,14],"right_children":[2,4,6,8,10,12,14,16,18,-1,-1,20,22,-1,24,-1,-1,-1,-1,-1,-1,-1,-1,-1,-1],"split_conditions":[1.1608E4,1.52E4,2.0379E4,1.0015E4,1.8581E4,1.0862E4,1.5189E4,1.4752E4,1.2181E4,-1.1878523E2,-2.9120117E1,9.374E3,8.816E3,-7.72372E1,1.5926E4,-7.493809E1,-7.820862E0,-2.3472609E1,2.9974415E1,5.149839E1,-5.7119545E1,-3.3523952E1,8.202615E1,3.010651E1,-3.0797705E1],"split_indices":[0,2,2,0,2,2,0,4,3,0,0,4,4,0,0,0,0,0,0,0,0,0,0,0,0],"split_type":[0,0,0,0,0,0,0,0,0,0,0,0,0,0,0,0,0,0,0,0,0,0,0,0,0],"sum_hessian":[6.7E1,2.4E1,4.3E1,2E1,4E0,3.7E1,6E0,1.2E1,8E0,3E0,1E0,8E0,2.9E1,3E0,3E0,9E0,3E0,4E0,4E0,2E0,6E0,3E0,2.6E1,2E0,1E0],"tree_param":{"num_deleted":"0","num_feature":"6","num_nodes":"25","size_leaf_vector":"1"}},{"base_weights":[-2.8085562E1,-7.6149097E2,1.6886385E2,5.859375E-1,-8.1625984E1,8.6776245E2,-2.4351768E2,-9.897014E2,6.606799E2,-4.0455902E2,1.4036616E3,-8.5537775E2,5.747685E2,-6.2418537E1,-5.3423343E0,4.2408604E1,-6.9195313E0,-5.712799E1,2.1729078E1,8.0309296E1,-3.5791943E1,-7.14772E1,-1.0172488E1,1.4630879E2,-9.64772E0],"categories":[],"categories_nodes":[],"categories_segments":[],"categories_sizes":[],"default_left":[0,0,0,0,0,0,0,0,0,0,0,0,0,0,0,0,0,0,0,0,0,0,0,0,0],"id":33,"left_children":[1,3,5,7,-1,9,11,13,15,17,19,21,23,-1,-1,-1,-1,-1,-1,-1,-1,-1,-1,-1,-1],"loss_changes":[1.0239651E7,9.957821E6,1.6351236E7,6.53702E6,0E0,1.4886421E7,1.8516004E7,7.800855E5,1.016296E6,4.83154E6,7.588526E6,7.569777E6,2.9448288E7,0E0,0E0,0E0,0E0,0E0,0E0,0E0,0E0,0E0,0E0,0E0,0E0],"parents":[2147483647,0,0,1,1,2,2,3,3,5,5,6,6,7,7,8,8,9,9,10,10,11,11,12,12],"right_children":[2,4,6,8,-1,10,12,14,16,18,20,22,24,-1,-1,-1,-1,-1,-1,-1,-1,-1,-1,-1,-1],"split_conditions":[1.0583E4,1.247E4,1.3401E4,8.456E3,-8.1625984E1,9.364E3,1.5936E4,1.0015E4,8.997E3,9.498E3,2.0249E4,1.2143E4,1.7816E4,-6.2418537E1,-5.3423343E0,4.2408604E1,-6.9195313E0,-5.712799E1,2.1729078E1,8.0309296E1,-3.5791943E1,-7.14772E1,-1.0172488E1,1.4630879E2,-9.64772E0],"split_indices":[3,5,3,4,0,5,4,2,3,4,5,5,4,0,0,0,0,0,0,0,0,0,0,0,0],"split_type":[0,0,0,0,0,0,0,0,0,0,0,0,0,0,0,0,0,0,0,0,0,0,0,0,0],"sum_hessian":[6.9E1,1.4E1,5.5E1,8E0,6E0,2E1,3.5E1,3E0,5E0,6E0,1.4E1,2E1,1.5E1,2E0,1E0,4E0,1E0,3E0,3E0,1.3E1,1E0,1E1,1E1,3E0,1.2E1],"tree_param":{"num_deleted":"0","num_feature":"6","num_nodes":"25","size_leaf_vector":"1"}},{"base_weights":[-7.601404E1,1.05212265E2,-8.700957E2,5.454643E2,-3.073508E2,-1.3709384E3,4.7432422E2,-3.6626855E2,1.639675E3,-1.033978E3,1.537742E2,-9.790951E1,4.5629526E2,3.2956054E0,2.9424545E1,2.2096554E1,-3.5016747E1,9.2404175E0,1.0520483E2,7.0698733E0,-7.4620926E1,-3.574376E1,2.2651114E1,3.9659523E1,-5.437378E0],"categories":[],"categories_nodes":[],"categories_segments":[],"categories_sizes":[],"default_left":[0,0,0,0,0,0,0,0,0,0,0,0,0,0,0,0,0,0,0,0,0,0,0,0,0],"id":34,"left_children":[1,3,5,7,9,11,13,15,17,19,21,-1,23,-1,-1,-1,-1,-1,-1,-1,-1,-1,-1,-1,-1],"loss_changes":[9.301688E6,9.79413E6,8.730383E6,2.6538886E7,9.540846E6,1.055093E7,1.477195E5,4.3593835E6,7.719198E6,6.138259E6,5.002804E6,0E0,6.573382E5,0E0,0E0,0E0,0E0,0E0,0E0,0E0,0E0,0E0,0E0,0E0,0E0],"parents":[2147483647,0,0,1,1,2,2,3,3,4,4,5,5,6,6,7,7,8,8,9,9,10,10,12,12],"right_children":[2,4,6,8,10,12,14,16,18,20,22,-1,24,-1,-1,-1,-1,-1,-1,-1,-1,-1,-1,-1,-1],"split_conditions":[2.0128E4,1.3754E4,1.8944E4,1.0895E4,1.0965E4,2.0128E4,2.0379E4,1.0015E4,9.364E3,1.1143E4,1.0862E4,-9.790951E1,1.5113E4,3.2956054E0,2.9424545E1,2.2096554E1,-3.5016747E1,9.2404175E0,1.0520483E2,7.0698733E0,-7.4620926E1,-3.574376E1,2.2651114E1,3.9659523E1,-5.437378E0],"split_indices":[3,1,1,1,5,5,3,5,4,3,3,0,1,0,0,0,0,0,0,0,0,0,0,0,0],"split_type":[0,0,0,0,0,0,0,0,0,0,0,0,0,0,0,0,0,0,0,0,0,0,0,0,0],"sum_hessian":[6.3E1,5.2E1,1.1E1,2.5E1,2.7E1,8E0,3E0,1.4E1,1.1E1,1E1,1.7E1,6E0,2E0,1E0,2E0,4E0,1E1,3E0,8E0,3E0,7E0,4E0,1.3E1,1E0,1E0],"tree_param":{"num_deleted":"0","num_feature":"6","num_nodes":"25","size_leaf_vector":"1"}},{"base_weights":[8.1768265E1,-3.6099908E2,1.1494277E3,-7.2265216E2,3.6226617E2,1.8737172E3,3.101955E2,-8.370628E2,2.588855E2,1.8208977E3,-6.9500256E2,2.164954E3,2.3625652E1,5.5198135E1,6.5129295E1,-2.9406254E1,-6.1316914E1,-3.402173E1,3.9940186E1,-5.4444987E-1,1.2778951E2,-5.4104053E1,2.8443716E1,2.7214746E1,1.1593603E2,3.1605469E1,-4.796472E0],"categories":[],"categories_nodes":[],"categories_segments":[],"categories_sizes":[],"default_left":[0,0,0,0,0,0,0,0,0,0,0,0,0,0,0,0,0,0,0,0,0,0,0,0,0,0,0],"id":35,"left_children":[1,3,5,7,9,11,13,15,17,19,21,23,-1,25,-1,-1,-1,-1,-1,-1,-1,-1,-1,-1,-1,-1,-1],"loss_changes":[3.0669326E7,1.2294064E7,1.0967874E7,3.697951E6,2.5940176E7,3.057856E6,2.4586692E6,1.99211E6,2.5721578E6,9.450996E6,5.507764E6,7.31552E5,0E0,8.453227E5,0E0,0E0,0E0,0E0,0E0,0E0,0E0,0E0,0E0,0E0,0E0,0E0,0E0],"parents":[2147483647,0,0,1,1,2,2,3,3,4,4,5,5,6,6,7,7,8,8,9,9,10,10,11,11,13,13],"right_children":[2,4,6,8,10,12,14,16,18,20,22,24,-1,26,-1,-1,-1,-1,-1,-1,-1,-1,-1,-1,-1,-1,-1],"split_conditions":[1.6611E4,1.5936E4,1.3401E4,1.8944E4,1.701E4,1.7697E4,2.2135E4,1.2143E4,1.1608E4,7.975E3,1.5189E4,1.2267E4,2.3625652E1,1.7562E4,6.5129295E1,-2.9406254E1,-6.1316914E1,-3.402173E1,3.9940186E1,-5.4444987E-1,1.2778951E2,-5.4104053E1,2.8443716E1,2.7214746E1,1.1593603E2,3.1605469E1,-4.796472E0],"split_indices":[0,3,2,5,2,5,0,2,0,0,0,5,0,0,0,0,0,0,0,0,0,0,0,0,0,0,0],"split_type":[0,0,0,0,0,0,0,0,0,0,0,0,0,0,0,0,0,0,0,0,0,0,0,0,0,0,0],"sum_hessian":[6.3E1,4.5E1,1.8E1,3E1,1.5E1,9E0,9E0,2.7E1,3E0,6E0,9E0,7E0,2E0,8E0,1E0,1.8E1,9E0,1E0,2E0,2E0,4E0,7E0,2E0,1E0,6E0,1E0,7E0],"tree_param":{"num_deleted":"0","num_feature":"6","num_nodes":"27","size_leaf_vector":"1"}},{"base_weights":[-6.933814E1,-1.1352449E3,4.528335E2,-1.3334574E3,-2.3427364E2,6.884077E2,-3.9340225E2,-4.4873788E2,-1.5711604E3,1.2918848E1,-4.2203052E2,-6.453285E1,1.1575868E3,-1.1440914E3,2.977391E2,-1.3867676E0,-2.7352736E1,-6.563794E0,-8.401056E1,-2.4837566E1,-4.9467044E0,-2.0341665E1,4.4646328E1,7.610953E1,-3.8104656E-1,-6.3363148E1,-1.6285131E1,-2.468506E-1,3.0103043E1],"categories":[],"categories_nodes":[],"categories_segments":[],"categories_sizes":[],"default_left":[0,0,0,0,0,0,0,0,0,0,0,0,0,0,0,0,0,0,0,0,0,0,0,0,0,0,0,0,0],"id":36,"left_children":[1,3,5,7,9,11,13,15,17,-1,19,21,23,25,27,-1,-1,-1,-1,-1,-1,-1,-1,-1,-1,-1,-1,-1,-1],"loss_changes":[3.5579016E7,3.437864E6,8.842928E6,2.870068E6,5.715356E5,1.2085675E7,5.528964E6,1.9178538E5,1.820698E6,0E0,4.7422438E4,4.9516145E6,8.933222E6,9.12605E4,5.5563794E5,0E0,0E0,0E0,0E0,0E0,0E0,0E0,0E0,0E0,0E0,0E0,0E0,0E0,0E0],"parents":[2147483647,0,0,1,1,2,2,3,3,4,4,5,5,6,6,7,7,8,8,10,10,11,11,12,12,13,13,14,14],"right_children":[2,4,6,8,10,12,14,16,18,-1,20,22,24,26,28,-1,-1,-1,-1,-1,-1,-1,-1,-1,-1,-1,-1,-1,-1],"split_conditions":[1.1474E4,1.5388E4,1.7816E4,8.251E3,1.1474E4,1.2181E4,2.0128E4,7.962E3,7.237E3,1.2918848E1,1.0583E4,1.6611E4,1.7816E4,1.6135E4,1.5175E4,-1.3867676E0,-2.7352736E1,-6.563794E0,-8.401056E1,-2.4837566E1,-4.9467044E0,-2.0341665E1,4.4646328E1,7.610953E1,-3.8104656E-1,-6.3363148E1,-1.6285131E1,-2.468506E-1,3.0103043E1],"split_indices":[0,5,5,4,3,4,5,3,5,0,0,0,3,0,0,0,0,0,0,0,0,0,0,0,0,0,0,0,0],"split_type":[0,0,0,0,0,0,0,0,0,0,0,0,0,0,0,0,0,0,0,0,0,0,0,0,0,0,0,0,0],"sum_hessian":[6.2E1,2E1,4.2E1,1.6E1,4E0,3.3E1,9E0,4E0,1.2E1,1E0,3E0,1.3E1,2E1,4E0,5E0,1E0,3E0,1E0,1.1E1,2E0,1E0,1E1,3E0,1.5E1,5E0,3E0,1E0,3E0,2E0],"tree_param":{"num_deleted":"0","num_feature":"6","num_nodes":"29","size_leaf_vector":"1"}},{"base_weights":[4.4934498E1,-8.1628345E2,5.032522E2,-4.9700375E2,-1.9301455E3,8.5734436E2,-3.420479E2,-6.870896E2,4.3511206E2,-1.0876928E2,-2.372964E1,-3.5600616E2,1.3476122E3,-1.1477142E3,9.4990036E1,-2.0820312E-1,-4.4845013E1,5.2761555E0,3.5596973E1,2.9475555E1,-5.4230145E1,-1.83458E1,9.2212715E1,-4.411499E0,-6.952639E1,-2.8254993E1,2.2930714E1],"categories":[],"categories_nodes":[],"categories_segments":[],"categories_sizes":[],"default_left":[0,0,0,0,0,0,0,0,0,0,0,0,0,0,0,0,0,0,0,0,0,0,0,0,0,0,0],"id":37,"left_children":[1,3,5,7,9,11,13,15,17,-1,-1,19,21,23,25,-1,-1,-1,-1,-1,-1,-1,-1,-1,-1,-1,-1],"loss_changes":[2.7251172E7,7.575916E6,1.3762389E7,3.842601E6,7.52376E5,1.9515492E7,5.038516E6,2.432111E6,2.8983094E5,0E0,0E0,7.528393E6,2.0261344E7,1.1635995E6,2.6594095E6,0E0,0E0,0E0,0E0,0E0,0E0,0E0,0E0,0E0,0E0,0E0,0E0],"parents":[2147483647,0,0,1,1,2,2,3,3,4,4,5,5,6,6,7,7,8,8,11,11,12,12,13,13,14,14],"right_children":[2,4,6,8,10,12,14,16,18,-1,-1,20,22,24,26,-1,-1,-1,-1,-1,-1,-1,-1,-1,-1,-1,-1],"split_conditions":[1.1608E4,1.52E4,1.701E4,1.6611E4,1.8581E4,1.0583E4,1.5113E4,8.997E3,1.0862E4,-1.0876928E2,-2.372964E1,9.374E3,1.0862E4,1.7697E4,1.2268E4,-2.0820312E-1,-4.4845013E1,5.2761555E0,3.5596973E1,2.9475555E1,-5.4230145E1,-1.83458E1,9.2212715E1,-4.411499E0,-6.952639E1,-2.8254993E1,2.2930714E1],"split_indices":[0,2,2,3,2,3,0,2,0,0,0,4,4,2,4,0,0,0,0,0,0,0,0,0,0,0,0],"split_type":[0,0,0,0,0,0,0,0,0,0,0,0,0,0,0,0,0,0,0,0,0,0,0,0,0,0,0],"sum_hessian":[6.7E1,2.3E1,4.4E1,1.9E1,4E0,3.1E1,1.3E1,1.6E1,3E0,3E0,1E0,9E0,2.2E1,4E0,9E0,4E0,1.2E1,2E0,1E0,4E0,5E0,5E0,1.7E1,1E0,3E0,3E0,6E0],"tree_param":{"num_deleted":"0","num_feature":"6","num_nodes":"27","size_leaf_vector":"1"}},{"base_weights":[-9.687802E1,8.4742386E1,-1.2565564E3,-8.89588E2,3.8598425E2,-8.830548E1,3.5125327E2,-8.38554E1,-5.223455E2,9.9416406E2,-1.4032617E2,2.357461E1,2.7693849E0,3.1847387E1,-3.509848E1,9.246649E0,8.565083E1,-3.6155727E1,8.823165E0],"categories":[],"categories_nodes":[],"categories_segments":[],"categories_sizes":[],"default_left":[0,0,0,0,0,0,0,0,0,0,0,0,0,0,0,0,0,0,0],"id":38,"left_children":[1,3,5,7,9,-1,11,-1,13,15,17,-1,-1,-1,-1,-1,-1,-1,-1],"loss_changes":[1.4007487E7,1.7366894E7,7.993732E6,3.172921E6,1.454362E7,0E0,8.060884E4,0E0,2.7377252E6,1.1899282E7,4.743133E6,0E0,0E0,0E0,0E0,0E0,0E0,0E0,0E0],"parents":[2147483647,0,0,1,1,2,2,3,3,4,4,6,6,8,8,9,9,10,10],"right_children":[2,4,6,8,10,-1,12,-1,14,16,18,-1,-1,-1,-1,-1,-1,-1,-1],"split_conditions":[2.0128E4,1.0306E4,1.8944E4,8.456E3,1.3754E4,-8.830548E1,1.999E4,-8.38554E1,8.642E3,1.1837E4,1.0965E4,2.357461E1,2.7693849E0,3.1847387E1,-3.509848E1,9.246649E0,8.565083E1,-3.6155727E1,8.823165E0],"split_indices":[3,1,1,3,1,0,1,0,3,1,5,0,0,0,0,0,0,0,0],"split_type":[0,0,0,0,0,0,0,0,0,0,0,0,0,0,0,0,0,0,0],"sum_hessian":[6.5E1,5.7E1,8E0,1.3E1,4.4E1,6E0,2E0,3E0,1E1,2E1,2.4E1,1E0,1E0,1E0,9E0,1E1,1E1,8E0,1.6E1],"tree_param":{"num_deleted":"0","num_feature":"6","num_nodes":"19","size_leaf_vector":"1"}},{"base_weights":[-3.421823E1,-8.970667E2,5.137886E2,1.9830449E2,-1.1052389E3,1.7744162E2,1.4149673E3,-8.538721E0,2.5064095E1,-1.2619622E3,-4.769834E2,-6.7251044E2,4.0833054E2,7.7156253E0,1.5256016E3,-7.085491E1,-3.2813802E0,-9.9691164E-1,-4.6369125E1,1.227904E1,-7.112371E1,9.745202E1,9.480745E0,9.646596E1,4.6745167E1],"categories":[],"categories_nodes":[],"categories_segments":[],"categories_sizes":[],"default_left":[0,0,0,0,0,0,0,0,0,0,0,0,0,0,0,0,0,0,0,0,0,0,0,0,0],"id":39,"left_children":[1,3,5,7,9,11,13,-1,-1,15,17,19,21,-1,23,-1,-1,-1,-1,-1,-1,-1,-1,-1,-1],"loss_changes":[3.1668794E7,6.147848E6,1.2176384E7,6.44719E5,1.564234E6,6.3581865E6,1.298768E6,0E0,0E0,3.062106E6,1.216626E6,5.169078E6,8.054867E6,0E0,5.81026E5,0E0,0E0,0E0,0E0,0E0,0E0,0E0,0E0,0E0,0E0],"parents":[2147483647,0,0,1,1,2,2,3,3,4,4,5,5,6,6,9,9,10,10,11,11,12,12,14,14],"right_children":[2,4,6,8,10,12,14,-1,-1,16,18,20,22,-1,24,-1,-1,-1,-1,-1,-1,-1,-1,-1,-1],"split_conditions":[1.2267E4,8.251E3,1.8944E4,1.0792E4,1.5388E4,1.0583E4,8.997E3,-8.538721E0,2.5064095E1,1.2181E4,1.0862E4,1.247E4,1.0792E4,7.7156253E0,1.2268E4,-7.085491E1,-3.2813802E0,-9.9691164E-1,-4.6369125E1,1.227904E1,-7.112371E1,9.745202E1,9.480745E0,9.646596E1,4.6745167E1],"split_indices":[0,5,0,0,5,3,5,0,0,0,0,5,3,0,3,0,0,0,0,0,0,0,0,0,0],"split_type":[0,0,0,0,0,0,0,0,0,0,0,0,0,0,0,0,0,0,0,0,0,0,0,0,0],"sum_hessian":[6.5E1,2.5E1,4E1,4E0,2.1E1,3E1,1E1,2E0,2E0,1.6E1,5E0,6E0,2.4E1,1E0,9E0,1.4E1,2E0,3E0,2E0,3E0,3E0,2E0,2.2E1,4E0,5E0],"tree_param":{"num_deleted":"0","num_feature":"6","num_nodes":"25","size_leaf_vector":"1"}},{"base_weights":[1.3930313E1,-3.8465887E2,7.4118317E2,-8.8048E1,-1.3250089E3,1.4761987E3,1.632304E2,-3.3206012E2,1.06535E3,9.190747E0,-7.565399E1,4.4571753E2,1.8541595E3,-5.4013405E1,3.5992165E1,1.0432846E1,-4.860075E1,1.1116323E2,1.9455704E1,3.2569042E1,-4.2818117E0,1.0235879E2,1.7401564E1,-2.8727247E1,1.0650202E1],"categories":[],"categories_nodes":[],"categories_segments":[],"categories_sizes":[],"default_left":[0,0,0,0,0,0,0,0,0,0,0,0,0,0,0,0,0,0,0,0,0,0,0,0,0],"id":40,"left_children":[1,3,5,7,9,11,13,15,17,-1,-1,19,21,23,-1,-1,-1,-1,-1,-1,-1,-1,-1,-1,-1],"loss_changes":[1.883711E7,1.1597891E7,9.529539E6,9.641381E6,3.115788E6,3.068384E6,1.731771E6,9.891783E6,3.8330375E6,0E0,0E0,4.929018E5,1.32247E6,1.6512814E6,0E0,0E0,0E0,0E0,0E0,0E0,0E0,0E0,0E0,0E0,0E0],"parents":[2147483647,0,0,1,1,2,2,3,3,4,4,5,5,6,6,7,7,8,8,11,11,12,12,13,13],"right_children":[2,4,6,8,10,12,14,16,18,-1,-1,20,22,24,-1,-1,-1,-1,-1,-1,-1,-1,-1,-1,-1],"split_conditions":[1.5189E4,1.5926E4,1.3401E4,1.472E4,1.0947E4,1.2267E4,1.5926E4,1.1738E4,1.4752E4,9.190747E0,-7.565399E1,1.1143E4,1.7697E4,1.8581E4,3.5992165E1,1.0432846E1,-4.860075E1,1.1116323E2,1.9455704E1,3.2569042E1,-4.2818117E0,1.0235879E2,1.7401564E1,-2.8727247E1,1.0650202E1],"split_indices":[0,2,2,2,4,5,4,5,2,0,0,2,5,0,0,0,0,0,0,0,0,0,0,0,0],"split_type":[0,0,0,0,0,0,0,0,0,0,0,0,0,0,0,0,0,0,0,0,0,0,0,0,0],"sum_hessian":[6.3E1,4.1E1,2.2E1,3.2E1,9E0,9E0,1.3E1,2.7E1,5E0,1E0,8E0,3E0,6E0,1E1,3E0,1.5E1,1.2E1,1E0,4E0,2E0,1E0,5E0,1E0,3E0,7E0],"tree_param":{"num_deleted":"0","num_feature":"6","num_nodes":"25","size_leaf_vector":"1"}},{"base_weights":[6.837631E1,-1.2069325E3,3.858886E2,-7.013253E2,-1.67992E3,1.7341345E2,1.2609429E3,-8.690472E2,-1.3210645E2,-9.179779E1,-2.249353E1,6.2020886E2,-2.8126437E2,7.9576843E2,1.0405469E2,-5.56438E0,-4.991708E1,-9.046289E0,-8.6169434E-1,4.9335415E1,-2.607872E1,-6.837245E1,1.8039687E0,1.2717151E1,5.348776E1],"categories":[],"categories_nodes":[],"categories_segments":[],"categories_sizes":[],"default_left":[0,0,0,0,0,0,0,0,0,0,0,0,0,0,0,0,0,0,0,0,0,0,0,0,0],"id":41,"left_children":[1,3,5,7,9,11,13,15,17,-1,-1,19,21,23,-1,-1,-1,-1,-1,-1,-1,-1,-1,-1,-1],"loss_changes":[2.638102E7,1.930728E6,9.449556E6,6.489575E5,3.25646E5,8.909804E6,2.159062E6,4.76741E5,1.3705949E4,0E0,0E0,9.720826E6,7.6326025E6,9.14662E5,0E0,0E0,0E0,0E0,0E0,0E0,0E0,0E0,0E0,0E0,0E0],"parents":[2147483647,0,0,1,1,2,2,3,3,4,4,5,5,6,6,7,7,8,8,11,11,12,12,13,13],"right_children":[2,4,6,8,10,12,14,16,18,-1,-1,20,22,24,-1,-1,-1,-1,-1,-1,-1,-1,-1,-1,-1],"split_conditions":[1.0015E4,1.2181E4,2.0249E4,1.0015E4,9.364E3,1.3754E4,2.3125E4,7.237E3,7.049E3,-9.179779E1,-2.249353E1,1.701E4,1.0583E4,1.2674E4,1.0405469E2,-5.56438E0,-4.991708E1,-9.046289E0,-8.6169434E-1,4.9335415E1,-2.607872E1,-6.837245E1,1.8039687E0,1.2717151E1,5.348776E1],"split_indices":[0,2,0,2,0,5,0,5,0,0,0,2,3,5,0,0,0,0,0,0,0,0,0,0,0],"split_type":[0,0,0,0,0,0,0,0,0,0,0,0,0,0,0,0,0,0,0,0,0,0,0,0,0],"sum_hessian":[6.3E1,1.2E1,5.1E1,7E0,5E0,4.2E1,9E0,5E0,2E0,4E0,1E0,2.1E1,2.1E1,7E0,2E0,1E0,4E0,1E0,1E0,1.6E1,5E0,4E0,1.7E1,3E0,4E0],"tree_param":{"num_deleted":"0","num_feature":"6","num_nodes":"25","size_leaf_vector":"1"}},{"base_weights":[6.107145E0,-8.8416376E2,3.027444E2,-1.3336775E2,-1.2815646E3,1.0337163E3,-3.054164E1,-2.966255E1,4.215462E1,-1.6577577E3,-4.9858124E2,-6.7212915E2,1.4790753E3,-5.6673987E2,6.751274E2,-1.268396E1,2.1127409E1,-9.135753E1,-1.603501E1,-8.4016114E-1,-3.0741247E1,3.132837E1,-6.569419E1,4.641547E1,1.2431106E2,3.754243E1,-3.3508087E1,6.134687E1,-1.0480971E1],"categories":[],"categories_nodes":[],"categories_segments":[],"categories_sizes":[],"default_left":[0,0,0,0,0,0,0,0,0,0,0,0,0,0,0,0,0,0,0,0,0,0,0,0,0,0,0,0,0],"id":42,"left_children":[1,3,5,7,9,11,13,-1,15,17,19,21,23,25,27,-1,-1,-1,-1,-1,-1,-1,-1,-1,-1,-1,-1,-1,-1],"loss_changes":[1.7961538E7,4.901317E6,1.245633E7,5.900468E5,2.413556E6,1.3149546E7,1.4004247E7,0E0,7.823914E5,9.99448E5,2.6968738E5,4.157015E6,4.90314E6,3.364805E6,8.0685845E6,0E0,0E0,0E0,0E0,0E0,0E0,0E0,0E0,0E0,0E0,0E0,0E0,0E0,0E0],"parents":[2147483647,0,0,1,1,2,2,3,3,4,4,5,5,6,6,8,8,9,9,10,10,11,11,12,12,13,13,14,14],"right_children":[2,4,6,8,10,12,14,-1,16,18,20,22,24,26,28,-1,-1,-1,-1,-1,-1,-1,-1,-1,-1,-1,-1,-1,-1],"split_conditions":[1.0895E4,9.364E3,1.3401E4,7.237E3,1.2181E4,7.962E3,1.701E4,-2.966255E1,7.962E3,9.374E3,8.997E3,1.2143E4,1.52E4,1.0947E4,1.3401E4,-1.268396E1,2.1127409E1,-9.135753E1,-1.603501E1,-8.4016114E-1,-3.0741247E1,3.132837E1,-6.569419E1,4.641547E1,1.2431106E2,3.754243E1,-3.3508087E1,6.134687E1,-1.0480971E1],"split_indices":[0,1,1,1,1,2,0,0,0,0,0,0,3,0,3,0,0,0,0,0,0,0,0,0,0,0,0,0,0],"split_type":[0,0,0,0,0,0,0,0,0,0,0,0,0,0,0,0,0,0,0,0,0,0,0,0,0,0,0,0,0],"sum_hessian":[6.6E1,1.6E1,5E1,6E0,1E1,1.5E1,3.5E1,1E0,5E0,6E0,4E0,3E0,1.2E1,2E1,1.5E1,3E0,2E0,5E0,1E0,1E0,3E0,1E0,2E0,9E0,3E0,1E0,1.9E1,9E0,6E0],"tree_param":{"num_deleted":"0","num_feature":"6","num_nodes":"29","size_leaf_vector":"1"}},{"base_weights":[-1.023684E2,-3.5654703E2,1.0711477E3,-4.9922076E2,3.3540683E2,4.274287E2,1.6436285E3,-1.696141E2,-1.1691002E3,-2.9997656E1,5.059972E2,1.2190543E2,5.651421E1,9.297948E1,1.4095606E1,1.2470515E1,-3.6308743E1,-7.213508E1,-3.7468075E1,3.3306324E1,6.965198E0,1.4893335E1,-7.6672363E0],"categories":[],"categories_nodes":[],"categories_segments":[],"categories_sizes":[],"default_left":[0,0,0,0,0,0,0,0,0,0,0,0,0,0,0,0,0,0,0,0,0,0,0],"id":43,"left_children":[1,3,5,7,9,11,13,15,17,-1,19,21,-1,-1,-1,-1,-1,-1,-1,-1,-1,-1,-1],"loss_changes":[2.0068574E7,5.5972415E6,3.719667E6,9.958353E6,1.8992082E6,1.3653831E6,1.240223E6,7.643916E6,6.41512E5,0E0,4.3567075E5,3.3627647E5,0E0,0E0,0E0,0E0,0E0,0E0,0E0,0E0,0E0,0E0,0E0],"parents":[2147483647,0,0,1,1,2,2,3,3,4,4,5,5,6,6,7,7,8,8,10,10,11,11],"right_children":[2,4,6,8,10,12,14,16,18,-1,20,22,-1,-1,-1,-1,-1,-1,-1,-1,-1,-1,-1],"split_conditions":[1.999E4,2.0128E4,1.2674E4,1.3791E4,7.049E3,2.2135E4,2.0128E4,1.3791E4,1.247E4,-2.9997656E1,1.8581E4,2.1247E4,5.651421E1,9.297948E1,1.4095606E1,1.2470515E1,-3.6308743E1,-7.213508E1,-3.7468075E1,3.3306324E1,6.965198E0,1.4893335E1,-7.6672363E0],"split_indices":[0,5,5,5,1,0,1,1,1,0,3,0,0,0,0,0,0,0,0,0,0,0,0],"split_type":[0,0,0,0,0,0,0,0,0,0,0,0,0,0,0,0,0,0,0,0,0,0,0],"sum_hessian":[6.5E1,5.4E1,1.1E1,4.5E1,9E0,6E0,5E0,3.1E1,1.4E1,1E0,8E0,5E0,1E0,4E0,1E0,1.8E1,1.3E1,7E0,7E0,5E0,3E0,3E0,2E0],"tree_param":{"num_deleted":"0","num_feature":"6","num_nodes":"23","size_leaf_vector":"1"}},{"base_weights":[-5.151131E1,8.543393E1,-8.3702704E2,-9.32579E1,1.0798962E3,3.642976E1,-1.1238042E3,2.0239577E2,-6.417799E2,1.256819E2,1.8304265E2,-8.186016E1,2.7759506E2,-1.998708E1,3.1301428E1,-5.7636227E1,-5.8149033E0,1.3064551E1,-5.2049804E0,3.0869873E0,1.7732641E1],"categories":[],"categories_nodes":[],"categories_segments":[],"categories_sizes":[],"default_left":[0,0,0,0,0,0,0,0,0,0,0,0,0,0,0,0,0,0,0,0,0],"id":44,"left_children":[1,3,5,7,9,-1,11,13,15,-1,17,-1,19,-1,-1,-1,-1,-1,-1,-1,-1],"loss_changes":[6.5258685E6,9.341228E6,4.859661E6,7.427658E6,9.826749E6,0E0,6.210294E6,7.9028025E6,4.161814E6,0E0,1.620108E5,0E0,2.8003812E4,0E0,0E0,0E0,0E0,0E0,0E0,0E0,0E0],"parents":[2147483647,0,0,1,1,2,2,3,3,4,4,6,6,7,7,8,8,10,10,12,12],"right_children":[2,4,6,8,10,-1,12,14,16,-1,18,-1,20,-1,-1,-1,-1,-1,-1,-1,-1],"split_conditions":[2.0128E4,1.713E4,1.52E4,1.3784E4,1.7816E4,3.642976E1,1.8944E4,1.0583E4,1.2143E4,1.256819E2,2.2135E4,-8.186016E1,2.09E4,-1.998708E1,3.1301428E1,-5.7636227E1,-5.8149033E0,1.3064551E1,-5.2049804E0,3.0869873E0,1.7732641E1],"split_indices":[3,3,2,3,3,0,1,3,5,0,1,0,1,0,0,0,0,0,0,0,0],"split_type":[0,0,0,0,0,0,0,0,0,0,0,0,0,0,0,0,0,0,0,0,0],"sum_hessian":[5.9E1,5.1E1,8E0,4.4E1,7E0,1E0,7E0,2.9E1,1.5E1,2E0,5E0,5E0,2E0,1.2E1,1.7E1,7E0,8E0,4E0,1E0,1E0,1E0],"tree_param":{"num_deleted":"0","num_feature":"6","num_nodes":"21","size_leaf_vector":"1"}},{"base_weights":[1.2265238E1,-5.865727E2,4.4892355E2,-2.7581168E2,-1.1774489E3,-5.4735027E1,5.6840784E2,-6.350303E2,1.1098808E2,4.902344E-2,-1.3248751E3,-5.248752E1,6.9828864E2,-6.3125E-1,-3.5139183E1,-7.8083434E0,3.9320263E1,-9.9110596E1,-3.876971E1,5.0680237E1,-1.275886E1],"categories":[],"categories_nodes":[],"categories_segments":[],"categories_sizes":[],"default_left":[0,0,0,0,0,0,0,0,0,0,0,0,0,0,0,0,0,0,0,0,0],"id":45,"left_children":[1,3,5,7,9,-1,11,13,15,-1,17,-1,19,-1,-1,-1,-1,-1,-1,-1,-1],"loss_changes":[1.6737043E7,4.633021E6,7.44647E6,2.7104485E6,1.564882E6,0E0,8.088898E6,4.12828E5,1.9272211E6,0E0,1.352556E6,0E0,1.0179873E7,0E0,0E0,0E0,0E0,0E0,0E0,0E0,0E0],"parents":[2147483647,0,0,1,1,2,2,3,3,4,4,6,6,7,7,8,8,10,10,12,12],"right_children":[2,4,6,8,10,-1,12,14,16,-1,18,-1,20,-1,-1,-1,-1,-1,-1,-1,-1],"split_conditions":[1.247E4,1.52E4,7.61E3,1.0015E4,8.728E3,-5.4735027E1,7.975E3,7.962E3,1.2267E4,4.902344E-2,1.6611E4,-5.248752E1,2.0379E4,-6.3125E-1,-3.5139183E1,-7.8083434E0,3.9320263E1,-9.9110596E1,-3.876971E1,5.0680237E1,-1.275886E1],"split_indices":[0,2,5,0,5,0,2,3,3,0,2,0,2,0,0,0,0,0,0,0,0],"split_type":[0,0,0,0,0,0,0,0,0,0,0,0,0,0,0,0,0,0,0,0,0],"sum_hessian":[6.2E1,2.6E1,3.6E1,1.8E1,8E0,2E0,3.4E1,9E0,9E0,1E0,7E0,2E0,3.2E1,1E0,8E0,7E0,2E0,2E0,5E0,2.4E1,8E0],"tree_param":{"num_deleted":"0","num_feature":"6","num_nodes":"21","size_leaf_vector":"1"}},{"base_weights":[-3.7398407E0,1.2613312E2,-7.56629E2,4.538104E0,1.4141326E3,3.453601E1,-9.9419226E2,2.8367145E2,-3.561982E2,1.19992516E2,-4.2962566E1,-6.989439E1,2.7916113E2,-2.7357803E1,3.839922E1,-2.7368277E1,2.3985538E1,-6.775562E0,3.5533693E0,3.3287842E0,1.7608301E1],"categories":[],"categories_nodes":[],"categories_segments":[],"categories_sizes":[],"default_left":[0,0,0,0,0,0,0,0,0,0,0,0,0,0,0,0,0,0,0,0,0],"id":46,"left_children":[1,3,5,7,9,-1,11,13,15,-1,17,-1,19,-1,-1,-1,-1,-1,-1,-1,-1],"loss_changes":[6.646692E6,9.077212E6,4.1250785E6,5.538494E6,7.284527E6,0E0,5.016659E6,1.2894003E7,4.0977408E6,0E0,4.1290383E4,0E0,2.311364E4,0E0,0E0,0E0,0E0,0E0,0E0,0E0,0E0],"parents":[2147483647,0,0,1,1,2,2,3,3,4,4,6,6,7,7,8,8,10,10,12,12],"right_children":[2,4,6,8,10,-1,12,14,16,-1,18,-1,20,-1,-1,-1,-1,-1,-1,-1,-1],"split_conditions":[1.9933E4,1.7562E4,1.52E4,1.3401E4,1.7816E4,3.453601E1,2.2135E4,1.0583E4,1.5926E4,1.19992516E2,1.5189E4,-6.989439E1,2.3125E4,-2.7357803E1,3.839922E1,-2.7368277E1,2.3985538E1,-6.775562E0,3.5533693E0,3.3287842E0,1.7608301E1],"split_indices":[3,3,2,2,3,0,2,3,5,0,2,0,2,0,0,0,0,0,0,0,0],"split_type":[0,0,0,0,0,0,0,0,0,0,0,0,0,0,0,0,0,0,0,0,0],"sum_hessian":[6.6E1,5.7E1,9E0,5.3E1,4E0,1E0,8E0,3E1,2.3E1,2E0,2E0,6E0,2E0,1.1E1,1.9E1,1.9E1,4E0,1E0,1E0,1E0,1E0],"tree_param":{"num_deleted":"0","num_feature":"6","num_nodes":"21","size_leaf_vector":"1"}},{"base_weights":[1.3205215E2,-5.477974E2,4.543269E2,-6.3802136E2,3.3672607E1,6.5268335E2,-3.250246E2,1.11211525E2,-8.208533E2,-9.114746E0,1.1043236E3,-4.5214325E1,2.1186443E2,-8.157309E0,1.7424934E1,-5.0239453E0,-5.173889E1,1.4792691E1,-4.9899197E1,9.4574E1,4.1215893E1,-2.375105E1,2.2212286E1],"categories":[],"categories_nodes":[],"categories_segments":[],"categories_sizes":[],"default_left":[0,0,0,0,0,0,0,0,0,0,0,0,0,0,0,0,0,0,0,0,0,0,0],"id":47,"left_children":[1,3,5,7,-1,9,11,13,15,17,19,-1,21,-1,-1,-1,-1,-1,-1,-1,-1,-1,-1],"loss_changes":[1.4928469E7,2.853767E6,7.323249E6,2.967946E6,0E0,1.1069171E7,3.3015795E6,3.8236403E5,2.515824E6,5.120441E6,3.2898E6,0E0,1.168742E6,0E0,0E0,0E0,0E0,0E0,0E0,0E0,0E0,0E0,0E0],"parents":[2147483647,0,0,1,1,2,2,3,3,5,5,6,6,7,7,8,8,9,9,10,10,12,12],"right_children":[2,4,6,8,-1,10,12,14,16,18,20,-1,22,-1,-1,-1,-1,-1,-1,-1,-1,-1,-1],"split_conditions":[1.1608E4,2.2135E4,1.7816E4,8.251E3,3.3672607E1,1.1474E4,2.0128E4,1.0792E4,7.975E3,1.0947E4,1.2256E4,-4.5214325E1,1.4767E4,-8.157309E0,1.7424934E1,-5.0239453E0,-5.173889E1,1.4792691E1,-4.9899197E1,9.4574E1,4.1215893E1,-2.375105E1,2.2212286E1],"split_indices":[0,4,5,5,0,4,5,0,0,4,3,0,0,0,0,0,0,0,0,0,0,0,0],"split_type":[0,0,0,0,0,0,0,0,0,0,0,0,0,0,0,0,0,0,0,0,0,0,0],"sum_hessian":[6.6E1,2.1E1,4.5E1,2E1,1E0,3.6E1,9E0,4E0,1.6E1,1.5E1,2.1E1,4E0,5E0,2E0,2E0,4E0,1.2E1,1.2E1,3E0,4E0,1.7E1,1E0,4E0],"tree_param":{"num_deleted":"0","num_feature":"6","num_nodes":"23","size_leaf_vector":"1"}},{"base_weights":[1.7347733E1,-2.998954E2,8.4474097E2,-4.9095557E2,2.9827646E2,6.095709E2,9.087005E1,-3.0764792E2,-1.2064232E3,8.424577E2,-3.8631445E2,1.2665977E3,1.9577716E2,-3.9409527E1,-3.20841E0,-2.838794E0,-6.942843E1,-4.435677E0,6.163345E1,-3.3260704E1,2.520459E1,6.926498E1,1.6827198E1,-1.7360035E1,1.4239751E1],"categories":[],"categories_nodes":[],"categories_segments":[],"categories_sizes":[],"default_left":[0,0,0,0,0,0,0,0,0,0,0,0,0,0,0,0,0,0,0,0,0,0,0,0,0],"id":48,"left_children":[1,3,5,7,9,11,-1,13,15,17,19,21,23,-1,-1,-1,-1,-1,-1,-1,-1,-1,-1,-1,-1],"loss_changes":[1.7052362E7,5.517921E6,3.009494E6,4.350272E6,4.795952E6,4.1020065E6,0E0,3.4594942E6,1.386982E6,2.6528295E6,1.8253325E6,1.96181E5,6.3056306E5,0E0,0E0,0E0,0E0,0E0,0E0,0E0,0E0,0E0,0E0,0E0,0E0],"parents":[2147483647,0,0,1,1,2,2,3,3,4,4,5,5,7,7,8,8,9,9,10,10,11,11,12,12],"right_children":[2,4,6,8,10,12,-1,14,16,18,20,22,24,-1,-1,-1,-1,-1,-1,-1,-1,-1,-1,-1,-1],"split_conditions":[1.701E4,1.713E4,2.3125E4,1.5113E4,1.5175E4,1.5388E4,9.087005E1,1.0306E4,7.962E3,1.0862E4,1.5189E4,2.0379E4,1.7697E4,-3.9409527E1,-3.20841E0,-2.838794E0,-6.942843E1,-4.435677E0,6.163345E1,-3.3260704E1,2.520459E1,6.926498E1,1.6827198E1,-1.7360035E1,1.4239751E1],"split_indices":[0,4,0,4,1,1,0,1,0,1,0,0,0,0,0,0,0,0,0,0,0,0,0,0,0],"split_type":[0,0,0,0,0,0,0,0,0,0,0,0,0,0,0,0,0,0,0,0,0,0,0,0,0],"sum_hessian":[6.3E1,4.6E1,1.7E1,3.5E1,1.1E1,1.5E1,2E0,2.9E1,6E0,6E0,5E0,5E0,1E1,9E0,2E1,1E0,5E0,2E0,4E0,4E0,1E0,4E0,1E0,1E0,9E0],"tree_param":{"num_deleted":"0","num_feature":"6","num_nodes":"25","size_leaf_vector":"1"}},{"base_weights":[-1.2112418E1,4.2917017E2,-4.0536142E2,-2.2670258E2,9.883254E2,-6.807117E2,2.2501099E2,3.122015E2,-5.0004092E2,2.320159E1,1.4689537E3,-9.565528E2,3.9818408E2,-3.7943628E2,4.6865298E2,-1.719383E1,3.6310486E1,-4.3008984E1,-2.8281007E0,-3.1330503E1,2.0422413E1,8.552793E1,8.697657E0,-3.764922E0,-5.7973873E1,-5.2018065E0,2.597177E1,1.3395509E0,-2.6188786E1,3.703383E1,5.1449413E0],"categories":[],"categories_nodes":[],"categories_segments":[],"categories_sizes":[],"default_left":[0,0,0,0,0,0,0,0,0,0,0,0,0,0,0,0,0,0,0,0,0,0,0,0,0,0,0,0,0,0,0],"id":49,"left_children":[1,3,5,7,9,11,13,15,17,19,21,23,25,27,29,-1,-1,-1,-1,-1,-1,-1,-1,-1,-1,-1,-1,-1,-1,-1,-1],"loss_changes":[1.214781E7,1.23263E7,6.5753765E6,2.512964E6,8.315502E6,8.118583E6,1.945049E6,1.879457E6,1.7081998E6,2.008302E6,3.456984E6,3.668086E6,4.1940894E5,2.4857094E5,8.192289E5,0E0,0E0,0E0,0E0,0E0,0E0,0E0,0E0,0E0,0E0,0E0,0E0,0E0,0E0,0E0,0E0],"parents":[2147483647,0,0,1,1,2,2,3,3,4,4,5,5,6,6,7,7,8,8,9,9,10,10,11,11,12,12,13,13,14,14],"right_children":[2,4,6,8,10,12,14,16,18,20,22,24,26,28,30,-1,-1,-1,-1,-1,-1,-1,-1,-1,-1,-1,-1,-1,-1,-1,-1],"split_conditions":[1.3401E4,1.0895E4,1.8944E4,8.997E3,9.498E3,2.0128E4,1.0895E4,7.61E3,1.0583E4,7.975E3,1.7697E4,1.0965E4,1.0583E4,1.4587E4,2.09E4,-1.719383E1,3.6310486E1,-4.3008984E1,-2.8281007E0,-3.1330503E1,2.0422413E1,8.552793E1,8.697657E0,-3.764922E0,-5.7973873E1,-5.2018065E0,2.597177E1,1.3395509E0,-2.6188786E1,3.703383E1,5.1449413E0],"split_indices":[2,1,1,2,3,5,5,1,2,2,5,3,1,2,2,0,0,0,0,0,0,0,0,0,0,0,0,0,0,0,0],"split_type":[0,0,0,0,0,0,0,0,0,0,0,0,0,0,0,0,0,0,0,0,0,0,0,0,0,0,0,0,0,0,0],"sum_hessian":[6.8E1,3.2E1,3.6E1,1.5E1,1.7E1,2.5E1,1.1E1,5E0,1E1,6E0,1.1E1,2E1,5E0,3E0,8E0,2E0,3E0,5E0,5E0,2E0,4E0,9E0,2E0,4E0,1.6E1,1E0,4E0,1E0,2E0,4E0,4E0],"tree_param":{"num_deleted":"0","num_feature":"6","num_nodes":"31","size_leaf_vector":"1"}},{"base_weights":[-7.967284E1,-5.402404E2,1.670051E2,-7.858725E2,7.996179E1,4.500676E2,-4.0955774E2,1.0898096E2,-9.721086E2,2.4390262E2,-2.6690601E1,1.9181503E2,1.10494095E2,-7.293428E2,-7.979796E1,-6.2380695E0,2.0255201E1,-3.4436993E1,-7.895939E1,4.0141034E0,3.064065E1,-4.528569E0,4.722004E1,-4.7035656E1,-3.174398E0,8.464364E0,-2.1673817E1],"categories":[],"categories_nodes":[],"categories_segments":[],"categories_sizes":[],"default_left":[0,0,0,0,0,0,0,0,0,0,0,0,0,0,0,0,0,0,0,0,0,0,0,0,0,0,0],"id":50,"left_children":[1,3,5,7,9,11,13,15,17,19,-1,21,-1,23,25,-1,-1,-1,-1,-1,-1,-1,-1,-1,-1,-1,-1],"loss_changes":[8.156665E6,3.871379E6,7.854885E6,3.105713E6,9.351788E5,1.4119361E7,1.6290358E6,3.274073E5,1.492759E6,3.733313E5,0E0,6.2486155E6,0E0,1.0662115E6,8.662465E5,0E0,0E0,0E0,0E0,0E0,0E0,0E0,0E0,0E0,0E0,0E0,0E0],"parents":[2147483647,0,0,1,1,2,2,3,3,4,4,5,5,6,6,7,7,8,8,9,9,11,11,13,13,14,14],"right_children":[2,4,6,8,10,12,14,16,18,20,-1,22,-1,24,26,-1,-1,-1,-1,-1,-1,-1,-1,-1,-1,-1,-1],"split_conditions":[1.1608E4,1.5388E4,1.701E4,8.251E3,1.0947E4,1.5926E4,1.2628E4,1.0792E4,1.472E4,1.0862E4,-2.6690601E1,1.7816E4,1.10494095E2,1.8581E4,1.5175E4,-6.2380695E0,2.0255201E1,-3.4436993E1,-7.895939E1,4.0141034E0,3.064065E1,-4.528569E0,4.722004E1,-4.7035656E1,-3.174398E0,8.464364E0,-2.1673817E1],"split_indices":[0,5,2,5,0,3,5,0,2,0,0,0,0,0,5,0,0,0,0,0,0,0,0,0,0,0,0],"split_type":[0,0,0,0,0,0,0,0,0,0,0,0,0,0,0,0,0,0,0,0,0,0,0,0,0,0,0],"sum_hessian":[7E1,2.4E1,4.6E1,1.7E1,7E0,3.1E1,1.5E1,3E0,1.4E1,6E0,1E0,2.8E1,3E0,7E0,8E0,2E0,1E0,1.1E1,3E0,5E0,1E0,2.1E1,7E0,5E0,2E0,5E0,3E0],"tree_param":{"num_deleted":"0","num_feature":"6","num_nodes":"27","size_leaf_vector":"1"}},{"base_weights":[2.2891851E1,-7.87709E2,1.0599941E2,-6.328954E1,-1.1269995E2,5.2157526E2,-1.9794304E2,-1.6934107E1,3.7760742E0,-1.5999854E2,9.469813E2,-9.616579E2,-3.4885773E1,3.143308E1,-1.4442299E1,-1.3728772E1,6.047989E1,-1.7420338E1,-6.672473E1,2.9038395E1,-1.398759E1],"categories":[],"categories_nodes":[],"categories_segments":[],"categories_sizes":[],"default_left":[0,0,0,0,0,0,0,0,0,0,0,0,0,0,0,0,0,0,0,0,0],"id":51,"left_children":[1,3,5,-1,7,9,11,-1,-1,13,15,17,19,-1,-1,-1,-1,-1,-1,-1,-1],"loss_changes":[5.068659E6,2.116312E6,8.692398E6,0E0,1.9571653E5,8.559938E6,4.947622E6,0E0,0E0,1.4009884E6,6.106541E6,1.135551E6,5.2880615E6,0E0,0E0,0E0,0E0,0E0,0E0,0E0,0E0],"parents":[2147483647,0,0,1,1,2,2,4,4,5,5,6,6,9,9,10,10,11,11,12,12],"right_children":[2,4,6,-1,8,10,12,-1,-1,14,16,18,20,-1,-1,-1,-1,-1,-1,-1,-1],"split_conditions":[8.456E3,1.0015E4,1.3401E4,-6.328954E1,7.049E3,1.0583E4,1.4405E4,-1.6934107E1,3.7760742E0,8.642E3,7.962E3,1.3791E4,1.5926E4,3.143308E1,-1.4442299E1,-1.3728772E1,6.047989E1,-1.7420338E1,-6.672473E1,2.9038395E1,-1.398759E1],"split_indices":[3,2,2,0,3,2,2,0,0,3,4,2,2,0,0,0,0,0,0,0,0],"split_type":[0,0,0,0,0,0,0,0,0,0,0,0,0,0,0,0,0,0,0,0,0],"sum_hessian":[7.3E1,6E0,6.7E1,3E0,3E0,2.8E1,3.9E1,1E0,2E0,1.1E1,1.7E1,6E0,3.3E1,1E0,1E1,3E0,1.4E1,3E0,3E0,9E0,2.4E1],"tree_param":{"num_deleted":"0","num_feature":"6","num_nodes":"21","size_leaf_vector":"1"}},{"base_weights":[7.845733E1,-5.7142474E2,2.3952682E2,-1.690549E2,-5.3987103E1,6.7418256E2,-4.052899E1,-4.94268E2,3.2306362E1,1.1576528E3,2.5042218E2,-3.9758557E2,5.234549E2,-3.934546E1,-3.9029908E0,-1.4844703E1,6.761287E1,-9.487732E-1,2.8394102E1,-3.9107677E1,2.904359E0,8.425701E1,-5.4866652E0],"categories":[],"categories_nodes":[],"categories_segments":[],"categories_sizes":[],"default_left":[0,0,0,0,0,0,0,0,0,0,0,0,0,0,0,0,0,0,0,0,0,0,0],"id":52,"left_children":[1,3,5,7,-1,9,11,13,-1,15,17,19,21,-1,-1,-1,-1,-1,-1,-1,-1,-1,-1],"loss_changes":[7.3595275E6,2.6809065E6,6.8440845E6,2.7053315E6,0E0,4.21736E6,7.2562135E6,7.911715E5,0E0,3.232092E6,1.122574E6,3.9006495E6,1.0482832E7,0E0,0E0,0E0,0E0,0E0,0E0,0E0,0E0,0E0,0E0],"parents":[2147483647,0,0,1,1,2,2,3,3,5,5,6,6,7,7,9,9,10,10,11,11,12,12],"right_children":[2,4,6,8,-1,10,12,14,-1,16,18,20,22,-1,-1,-1,-1,-1,-1,-1,-1,-1,-1],"split_conditions":[1.0583E4,1.247E4,1.3401E4,9.364E3,-5.3987103E1,1.3784E4,1.5388E4,1.1738E4,3.2306362E1,7.049E3,1.2181E4,1.1143E4,1.7816E4,-3.934546E1,-3.9029908E0,-1.4844703E1,6.761287E1,-9.487732E-1,2.8394102E1,-3.9107677E1,2.904359E0,8.425701E1,-5.4866652E0],"split_indices":[3,5,2,4,0,5,4,2,0,4,2,5,3,0,0,0,0,0,0,0,0,0,0],"split_type":[0,0,0,0,0,0,0,0,0,0,0,0,0,0,0,0,0,0,0,0,0,0,0],"sum_hessian":[6.8E1,1.3E1,5.5E1,8E0,5E0,2.1E1,3.4E1,6E0,2E0,9E0,1.2E1,2.1E1,1.3E1,3E0,3E0,1E0,8E0,7E0,5E0,1.1E1,1E1,4E0,9E0],"tree_param":{"num_deleted":"0","num_feature":"6","num_nodes":"23","size_leaf_vector":"1"}},{"base_weights":[1.2982349E2,-6.130228E2,3.0625272E2,-4.0925668E2,-7.645542E1,8.497537E2,-3.8446518E1,-7.707168E1,-5.657152E2,2.1135263E2,1.4109044E3,-1.9668842E2,8.311413E1,-1.199856E1,1.4363159E1,-4.4498325E1,-1.5465186E1,-5.3925976E1,2.240959E1,3.3323E0,7.693329E1,-2.8789114E1,6.5075145E0],"categories":[],"categories_nodes":[],"categories_segments":[],"categories_sizes":[],"default_left":[0,0,0,0,0,0,0,0,0,0,0,0,0,0,0,0,0,0,0,0,0,0,0],"id":53,"left_children":[1,3,5,7,-1,9,11,13,15,17,19,21,-1,-1,-1,-1,-1,-1,-1,-1,-1,-1,-1],"loss_changes":[8.837687E6,1.8008765E6,1.0149266E7,5.800774E5,0E0,7.224827E6,9.477256E6,3.6568472E5,3.8986425E5,3.8437982E6,1.78664E6,4.03982E6,0E0,0E0,0E0,0E0,0E0,0E0,0E0,0E0,0E0,0E0,0E0],"parents":[2147483647,0,0,1,1,2,2,3,3,5,5,6,6,7,7,8,8,9,9,10,10,11,11],"right_children":[2,4,6,8,-1,10,12,14,16,18,20,22,-1,-1,-1,-1,-1,-1,-1,-1,-1,-1,-1],"split_conditions":[1.0895E4,2.0249E4,1.3754E4,8.997E3,-7.645542E1,1.1837E4,2.3125E4,1.0306E4,8.816E3,8.251E3,7.975E3,1.5189E4,8.311413E1,-1.199856E1,1.4363159E1,-4.4498325E1,-1.5465186E1,-5.3925976E1,2.240959E1,3.3323E0,7.693329E1,-2.8789114E1,6.5075145E0],"split_indices":[0,3,1,1,0,1,0,3,0,3,4,0,0,0,0,0,0,0,0,0,0,0,0],"split_type":[0,0,0,0,0,0,0,0,0,0,0,0,0,0,0,0,0,0,0,0,0,0,0],"sum_hessian":[6.5E1,1.2E1,5.3E1,1.1E1,1E0,2E1,3.3E1,4E0,7E0,1E1,1E1,3.1E1,2E0,3E0,1E0,2E0,5E0,1E0,9E0,1E0,9E0,1.4E1,1.7E1],"tree_param":{"num_deleted":"0","num_feature":"6","num_nodes":"23","size_leaf_vector":"1"}},{"base_weights":[-3.0369762E1,-7.5115375E2,1.5036855E2,-3.793125E1,-1.0326497E3,6.666699E1,8.034368E1,-9.372742E0,1.4004077E1,3.068335E0,-1.1610255E3,-1.5500073E2,5.186136E2,-7.0085434E1,-2.5487219E1,8.211638E0,-2.5054674E1,8.01256E1,4.723162E0],"categories":[],"categories_nodes":[],"categories_segments":[],"categories_sizes":[],"default_left":[0,0,0,0,0,0,0,0,0,0,0,0,0,0,0,0,0,0,0],"id":54,"left_children":[1,3,5,7,9,11,-1,-1,-1,-1,13,15,17,-1,-1,-1,-1,-1,-1],"loss_changes":[9.101807E6,2.7715985E6,6.719933E6,2.9025472E5,1.475702E6,5.4902125E6,0E0,0E0,0E0,0E0,6.96258E5,4.1702185E6,8.1238665E6,0E0,0E0,0E0,0E0,0E0,0E0],"parents":[2147483647,0,0,1,1,2,2,3,3,4,4,5,5,10,10,11,11,12,12],"right_children":[2,4,6,8,10,12,-1,-1,-1,-1,14,16,18,-1,-1,-1,-1,-1,-1],"split_conditions":[1.0015E4,7.975E3,2.3125E4,7.962E3,8.251E3,1.5388E4,8.034368E1,-9.372742E0,1.4004077E1,3.068335E0,9.364E3,1.3784E4,1.3754E4,-7.0085434E1,-2.5487219E1,8.211638E0,-2.5054674E1,8.01256E1,4.723162E0],"split_indices":[0,0,0,0,4,4,0,0,0,0,0,2,5,0,0,0,0,0,0],"split_type":[0,0,0,0,0,0,0,0,0,0,0,0,0,0,0,0,0,0,0],"sum_hessian":[6.8E1,1.3E1,5.5E1,4E0,9E0,5.3E1,2E0,3E0,1E0,1E0,8E0,3.6E1,1.7E1,5E0,3E0,1.9E1,1.7E1,4E0,1.3E1],"tree_param":{"num_deleted":"0","num_feature":"6","num_nodes":"19","size_leaf_vector":"1"}},{"base_weights":[2.2567713E1,-6.5400446E2,2.3861945E2,-1.6747572E2,-9.2917413E2,8.446264E2,-7.140223E1,-2.864149E2,1.3653979E1,-1.3387491E3,-2.5184921E2,4.3171243E2,1.7492773E3,-7.6752405E2,2.5062871E2,-6.3538575E0,-1.6715723E1,-7.315182E1,-1.7932837E1,2.991626E0,-1.723639E1,-2.9180176E0,3.726515E1,9.746404E1,2.3731592E1,-6.440496E1,-1.4301918E1,6.9266963E0,7.0720215E1],"categories":[],"categories_nodes":[],"categories_segments":[],"categories_sizes":[],"default_left":[0,0,0,0,0,0,0,0,0,0,0,0,0,0,0,0,0,0,0,0,0,0,0,0,0,0,0,0,0],"id":55,"left_children":[1,3,5,7,9,11,13,15,-1,17,19,21,23,25,27,-1,-1,-1,-1,-1,-1,-1,-1,-1,-1,-1,-1,-1,-1],"loss_changes":[9.657406E6,1.986434E6,9.454072E6,4.45009E5,2.43699E6,5.595047E6,7.814237E6,3.3095625E3,0E0,2.0615E5,1.6536869E5,2.0413642E6,3.49477E5,2.3886985E6,2.934933E6,0E0,0E0,0E0,0E0,0E0,0E0,0E0,0E0,0E0,0E0,0E0,0E0,0E0,0E0],"parents":[2147483647,0,0,1,1,2,2,3,3,4,4,5,5,6,6,7,7,9,9,10,10,11,11,12,12,13,13,14,14],"right_children":[2,4,6,8,10,12,14,16,-1,18,20,22,24,26,28,-1,-1,-1,-1,-1,-1,-1,-1,-1,-1,-1,-1,-1,-1],"split_conditions":[1.0792E4,9.364E3,1.3754E4,1.6611E4,1.2181E4,1.5926E4,1.1143E4,1.3791E4,1.3653979E1,9.364E3,8.997E3,1.2268E4,1.2965E4,1.3821E4,2.3125E4,-6.3538575E0,-1.6715723E1,-7.315182E1,-1.7932837E1,2.991626E0,-1.723639E1,-2.9180176E0,3.726515E1,9.746404E1,2.3731592E1,-6.440496E1,-1.4301918E1,6.9266963E0,7.0720215E1],"split_indices":[0,1,1,3,1,3,5,5,0,0,0,0,0,0,0,0,0,0,0,0,0,0,0,0,0,0,0,0,0],"split_type":[0,0,0,0,0,0,0,0,0,0,0,0,0,0,0,0,0,0,0,0,0,0,0,0,0,0,0,0,0],"sum_hessian":[6.4E1,1.5E1,4.9E1,6E0,9E0,1.6E1,3.3E1,5E0,1E0,5E0,4E0,1.2E1,4E0,1E1,2.3E1,2E0,3E0,4E0,1E0,1E0,3E0,5E0,7E0,3E0,1E0,4E0,6E0,2.2E1,1E0],"tree_param":{"num_deleted":"0","num_feature":"6","num_nodes":"29","size_leaf_vector":"1"}},{"base_weights":[1.2901373E2,-4.1613315E2,3.0397437E2,-5.9114594E2,2.1293848E2,7.990563E2,-1.0759078E2,-6.735985E2,-1.1925521E2,1.9481869E1,-7.928955E0,-9.1091515E1,1.1611881E3,-8.7190875E2,1.6530005E2,-1.7787598E0,-3.7026863E1,2.9168458E0,-1.1860987E1,-5.371477E1,1.2591251E1,4.3579025E1,1.0145459E2,-5.2884216E1,-2.34078E1,-1.140459E1,2.9075056E1],"categories":[],"categories_nodes":[],"categories_segments":[],"categories_sizes":[],"default_left":[0,0,0,0,0,0,0,0,0,0,0,0,0,0,0,0,0,0,0,0,0,0,0,0,0,0,0],"id":56,"left_children":[1,3,5,7,9,11,13,15,17,-1,-1,19,21,23,25,-1,-1,-1,-1,-1,-1,-1,-1,-1,-1,-1,-1],"loss_changes":[5.8492485E6,1.7773112E6,9.45886E6,3.865735E5,3.243753E5,6.875145E6,5.5670865E6,4.00739E5,7.6687375E4,0E0,0E0,2.6306325E6,2.001754E6,2.989E4,3.407237E6,0E0,0E0,0E0,0E0,0E0,0E0,0E0,0E0,0E0,0E0,0E0,0E0],"parents":[2147483647,0,0,1,1,2,2,3,3,4,4,5,5,6,6,7,7,8,8,11,11,12,12,13,13,14,14],"right_children":[2,4,6,8,10,12,14,16,18,-1,-1,20,22,24,26,-1,-1,-1,-1,-1,-1,-1,-1,-1,-1,-1,-1],"split_conditions":[1.0862E4,1.4752E4,1.4587E4,1.247E4,1.0306E4,1.0895E4,1.1143E4,7.237E3,8.997E3,1.9481869E1,-7.928955E0,8.251E3,1.701E4,1.3821E4,1.5189E4,-1.7787598E0,-3.7026863E1,2.9168458E0,-1.1860987E1,-5.371477E1,1.2591251E1,4.3579025E1,1.0145459E2,-5.2884216E1,-2.34078E1,-1.140459E1,2.9075056E1],"split_indices":[0,5,1,1,0,1,5,5,0,0,0,3,3,0,0,0,0,0,0,0,0,0,0,0,0,0,0],"split_type":[0,0,0,0,0,0,0,0,0,0,0,0,0,0,0,0,0,0,0,0,0,0,0,0,0,0,0],"sum_hessian":[5.9E1,1.4E1,4.5E1,1.1E1,3E0,2E1,2.5E1,9E0,2E0,2E0,1E0,6E0,1.4E1,6E0,1.9E1,1E0,8E0,1E0,1E0,1E0,5E0,1.2E1,2E0,3E0,3E0,1E1,9E0],"tree_param":{"num_deleted":"0","num_feature":"6","num_nodes":"27","size_leaf_vector":"1"}},{"base_weights":[4.7591393E1,-4.22087E2,1.97345E2,-6.1346416E1,-2.3297958E2,4.6547757E2,-2.3739225E1,1.3109766E1,-6.042986E2,-5.721506E2,7.016107E2,-4.0296133E2,5.786741E2,-2.9368849E1,1.1832679E1,-3.316562E1,-7.730737E0,-4.4623046E0,-4.321691E1,4.693159E1,6.3669224E0,-7.013563E1,-1.0141553E1,4.48697E1,1.114089E1],"categories":[],"categories_nodes":[],"categories_segments":[],"categories_sizes":[],"default_left":[0,0,0,0,0,0,0,0,0,0,0,0,0,0,0,0,0,0,0,0,0,0,0,0,0],"id":57,"left_children":[1,3,5,-1,7,9,11,13,15,17,19,21,23,-1,-1,-1,-1,-1,-1,-1,-1,-1,-1,-1,-1],"loss_changes":[4.936483E6,2.3015755E6,3.1528838E6,0E0,1.3785872E6,6.281869E6,7.086637E6,1.4813558E6,5.66675E4,6.2835475E5,2.602769E6,3.5170158E6,1.1610668E6,0E0,0E0,0E0,0E0,0E0,0E0,0E0,0E0,0E0,0E0,0E0,0E0],"parents":[2147483647,0,0,1,1,2,2,4,4,5,5,6,6,7,7,8,8,9,9,10,10,11,11,12,12],"right_children":[2,4,6,-1,8,10,12,14,16,18,20,22,24,-1,-1,-1,-1,-1,-1,-1,-1,-1,-1,-1,-1],"split_conditions":[1.0862E4,8.251E3,1.3401E4,-6.1346416E1,9.498E3,8.642E3,1.713E4,7.237E3,1.5189E4,1.3791E4,1.4767E4,1.2181E4,2.0379E4,-2.9368849E1,1.1832679E1,-3.316562E1,-7.730737E0,-4.4623046E0,-4.321691E1,4.693159E1,6.3669224E0,-7.013563E1,-1.0141553E1,4.48697E1,1.114089E1],"split_indices":[1,3,3,0,1,5,4,1,3,1,5,1,4,0,0,0,0,0,0,0,0,0,0,0,0],"split_type":[0,0,0,0,0,0,0,0,0,0,0,0,0,0,0,0,0,0,0,0,0,0,0,0,0],"sum_hessian":[6.8E1,1.6E1,5.2E1,2E0,1.4E1,2.3E1,2.9E1,9E0,5E0,4E0,1.9E1,1.8E1,1.1E1,2E0,7E0,4E0,1E0,2E0,2E0,1.3E1,6E0,2E0,1.6E1,5E0,6E0],"tree_param":{"num_deleted":"0","num_feature":"6","num_nodes":"25","size_leaf_vector":"1"}},{"base_weights":[4.3398705E1,-4.2969925E2,2.897136E2,-6.2402515E2,1.03620674E2,4.3137085E2,-4.0166553E2,-4.220756E2,-9.239201E2,2.9305386E2,-2.5824463E1,8.811466E2,-9.2345055E1,-7.435721E2,2.0801807E1,-3.0400772E1,-1.0120104E1,-1.1310913E1,-5.091084E1,8.5371095E-1,2.8167105E1,8.395301E0,8.671145E1,-4.068602E1,1.6807634E1,-4.1999325E1,-6.5375E0],"categories":[],"categories_nodes":[],"categories_segments":[],"categories_sizes":[],"default_left":[0,0,0,0,0,0,0,0,0,0,0,0,0,0,0,0,0,0,0,0,0,0,0,0,0,0,0],"id":58,"left_children":[1,3,5,7,9,11,13,15,17,19,-1,21,23,25,-1,-1,-1,-1,-1,-1,-1,-1,-1,-1,-1,-1,-1],"loss_changes":[7.8155405E6,2.4483325E6,4.482578E6,6.396185E5,9.7364506E5,8.796894E6,2.5459735E6,3.6708925E5,1.644065E5,4.3794572E5,0E0,1.1877873E7,5.837473E6,2.4468125E5,0E0,0E0,0E0,0E0,0E0,0E0,0E0,0E0,0E0,0E0,0E0,0E0,0E0],"parents":[2147483647,0,0,1,1,2,2,3,3,4,4,5,5,6,6,7,7,8,8,9,9,11,11,12,12,13,13],"right_children":[2,4,6,8,10,12,14,16,18,20,-1,22,24,26,-1,-1,-1,-1,-1,-1,-1,-1,-1,-1,-1,-1,-1],"split_conditions":[1.1608E4,1.4752E4,2.0128E4,1.276E4,1.0947E4,1.3784E4,1.9933E4,1.0015E4,8.816E3,1.9933E4,-2.5824463E1,1.0965E4,1.0862E4,1.8581E4,2.0801807E1,-3.0400772E1,-1.0120104E1,-1.1310913E1,-5.091084E1,8.5371095E-1,2.8167105E1,8.395301E0,8.671145E1,-4.068602E1,1.6807634E1,-4.1999325E1,-6.5375E0],"split_indices":[0,5,2,2,0,5,4,2,5,5,0,4,2,0,0,0,0,0,0,0,0,0,0,0,0,0,0],"split_type":[0,0,0,0,0,0,0,0,0,0,0,0,0,0,0,0,0,0,0,0,0,0,0,0,0,0,0],"sum_hessian":[6.5E1,2.2E1,4.3E1,1.6E1,6E0,3.6E1,7E0,1.1E1,5E0,5E0,1E0,1.9E1,1.7E1,5E0,2E0,5E0,6E0,1E0,4E0,3E0,2E0,1.1E1,8E0,6E0,1.1E1,4E0,1E0],"tree_param":{"num_deleted":"0","num_feature":"6","num_nodes":"27","size_leaf_vector":"1"}},{"base_weights":[-6.814362E1,-6.935805E2,5.59269E1,3.2029785E1,-9.6968805E2,-3.4827036E2,2.4104544E2,-5.748405E0,1.1825586E1,1.9236329E0,-1.1192072E3,-1.9662012E2,-8.298911E2,6.6426965E2,3.8845026E0,-6.0297188E1,-1.4969678E1,6.374707E0,-2.4807844E1,-3.0878174E0,-5.326753E1,4.6393932E1,2.0989259E-1,-2.4909636E1,1.2735366E1],"categories":[],"categories_nodes":[],"categories_segments":[],"categories_sizes":[],"default_left":[0,0,0,0,0,0,0,0,0,0,0,0,0,0,0,0,0,0,0,0,0,0,0,0,0],"id":59,"left_children":[1,3,5,7,9,11,13,-1,-1,-1,15,17,19,21,23,-1,-1,-1,-1,-1,-1,-1,-1,-1,-1],"loss_changes":[5.160276E6,2.2348705E6,4.2741155E6,1.4742495E5,1.2489725E6,1.1515088E6,3.9119382E6,0E0,0E0,0E0,1.36703E5,1.519519E6,6.576665E5,2.432116E6,3.401136E6,0E0,0E0,0E0,0E0,0E0,0E0,0E0,0E0,0E0,0E0],"parents":[2147483647,0,0,1,1,2,2,3,3,4,4,5,5,6,6,10,10,11,11,12,12,13,13,14,14],"right_children":[2,4,6,8,10,12,14,-1,-1,-1,16,18,20,22,24,-1,-1,-1,-1,-1,-1,-1,-1,-1,-1],"split_conditions":[9.374E3,7.975E3,1.2181E4,7.962E3,8.251E3,1.247E4,1.4395E4,-5.748405E0,1.1825586E1,1.9236329E0,9.364E3,1.1143E4,1.1837E4,1.6135E4,1.5926E4,-6.0297188E1,-1.4969678E1,6.374707E0,-2.4807844E1,-3.0878174E0,-5.326753E1,4.6393932E1,2.0989259E-1,-2.4909636E1,1.2735366E1],"split_indices":[0,0,4,0,4,5,4,0,0,0,0,3,0,3,4,0,0,0,0,0,0,0,0,0,0],"split_type":[0,0,0,0,0,0,0,0,0,0,0,0,0,0,0,0,0,0,0,0,0,0,0,0,0],"sum_hessian":[6.5E1,1E1,5.5E1,3E0,7E0,1.7E1,3.8E1,2E0,1E0,1E0,6E0,1.4E1,3E0,1.3E1,2.5E1,5E0,1E0,7E0,7E0,1E0,2E0,9E0,4E0,8E0,1.7E1],"tree_param":{"num_deleted":"0","num_feature":"6","num_nodes":"25","size_leaf_vector":"1"}},{"base_weights":[6.9887634E1,1.6261871E2,-4.6566827E2,5.6677734E1,1.0536708E3,2.869834E1,-6.4495734E2,-3.6083105E2,2.0509941E2,9.417904E1,1.6782056E2,-1.0075701E3,6.020117E1,-5.6224026E1,-6.992472E0,3.7112865E1,-1.0042388E1,1.9799479E0,1.3812134E1,-1.526355E1,-5.4348793E1,8.266293E0,-6.3793216E0],"categories":[],"categories_nodes":[],"categories_segments":[],"categories_sizes":[],"default_left":[0,0,0,0,0,0,0,0,0,0,0,0,0,0,0,0,0,0,0,0,0,0,0],"id":60,"left_children":[1,3,5,7,9,-1,11,13,15,-1,17,19,21,-1,-1,-1,-1,-1,-1,-1,-1,-1,-1],"loss_changes":[3.353463E6,5.321019E6,2.2341362E6,3.2963085E6,4.094952E6,0E0,2.3619522E6,2.2052768E6,8.653333E6,0E0,4.4669312E4,2.777E3,1.0005777E5,0E0,0E0,0E0,0E0,0E0,0E0,0E0,0E0,0E0,0E0],"parents":[2147483647,0,0,1,1,2,2,3,3,4,4,6,6,7,7,8,8,10,10,11,11,12,12],"right_children":[2,4,6,8,10,-1,12,14,16,-1,18,20,22,-1,-1,-1,-1,-1,-1,-1,-1,-1,-1],"split_conditions":[1.999E4,1.7562E4,1.52E4,1.0677E4,1.7816E4,2.869834E1,1.8581E4,8.251E3,1.3401E4,9.417904E1,1.0583E4,2.0249E4,2.1259E4,-5.6224026E1,-6.992472E0,3.7112865E1,-1.0042388E1,1.9799479E0,1.3812134E1,-1.526355E1,-5.4348793E1,8.266293E0,-6.3793216E0],"split_indices":[3,3,2,1,3,0,1,3,2,0,1,3,1,0,0,0,0,0,0,0,0,0,0],"split_type":[0,0,0,0,0,0,0,0,0,0,0,0,0,0,0,0,0,0,0,0,0,0,0],"sum_hessian":[6.5E1,5.6E1,9E0,5.1E1,5E0,1E0,8E0,1.3E1,3.8E1,2E0,3E0,5E0,3E0,2E0,1.1E1,1.6E1,2.2E1,2E0,1E0,1E0,4E0,2E0,1E0],"tree_param":{"num_deleted":"0","num_feature":"6","num_nodes":"23","size_leaf_vector":"1"}},{"base_weights":[-1.5837494E1,-4.622957E2,2.0297902E2,-6.8341656E2,3.7733032E1,4.9402316E2,-1.5020859E2,-4.4349948E2,-1.292293E3,1.878231E2,-2.5322437E1,1.8532422E2,1.4921323E3,-1.0529236E3,1.0889052E2,-3.5661786E0,-2.5234194E1,-1.4881958E1,-7.623156E1,1.6293863E0,2.7980885E1,4.4804527E1,-7.9360843E0,9.735366E1,1.940835E1,-5.806493E1,-1.5485596E1,-2.4931223E0,2.6581038E1],"categories":[],"categories_nodes":[],"categories_segments":[],"categories_sizes":[],"default_left":[0,0,0,0,0,0,0,0,0,0,0,0,0,0,0,0,0,0,0,0,0,0,0,0,0,0,0,0,0],"id":61,"left_children":[1,3,5,7,9,11,13,15,17,19,-1,21,23,25,27,-1,-1,-1,-1,-1,-1,-1,-1,-1,-1,-1,-1,-1,-1],"loss_changes":[6.8346135E6,2.5688235E6,4.905486E6,1.764147E6,7.48533E5,7.734468E6,5.260292E6,2.6003175E5,4.70594E5,3.85773E5,0E0,5.27749E6,2.257645E6,4.30595E4,1.2344819E6,0E0,0E0,0E0,0E0,0E0,0E0,0E0,0E0,0E0,0E0,0E0,0E0,0E0,0E0],"parents":[2147483647,0,0,1,1,2,2,3,3,4,4,5,5,6,6,7,7,8,8,9,9,11,11,12,12,13,13,14,14],"right_children":[2,4,6,8,10,12,14,16,18,20,-1,22,24,26,28,-1,-1,-1,-1,-1,-1,-1,-1,-1,-1,-1,-1,-1,-1],"split_conditions":[1.1608E4,1.5388E4,1.3784E4,1.472E4,1.0947E4,1.2759E4,1.0583E4,8.251E3,8.816E3,1.0862E4,-2.5322437E1,1.2674E4,1.4752E4,1.3784E4,1.9933E4,-3.5661786E0,-2.5234194E1,-1.4881958E1,-7.623156E1,1.6293863E0,2.7980885E1,4.4804527E1,-7.9360843E0,9.735366E1,1.940835E1,-5.806493E1,-1.5485596E1,-2.4931223E0,2.6581038E1],"split_indices":[0,5,5,2,0,5,3,5,0,0,0,2,2,0,0,0,0,0,0,0,0,0,0,0,0,0,0,0,0],"split_type":[0,0,0,0,0,0,0,0,0,0,0,0,0,0,0,0,0,0,0,0,0,0,0,0,0,0,0,0,0],"sum_hessian":[6.8E1,2.2E1,4.6E1,1.5E1,7E0,2.5E1,2.1E1,1.2E1,3E0,6E0,1E0,2E1,5E0,4E0,1.7E1,2E0,1E1,1E0,2E0,5E0,1E0,6E0,1.4E1,3E0,2E0,3E0,1E0,1.3E1,4E0],"tree_param":{"num_deleted":"0","num_feature":"6","num_nodes":"29","size_leaf_vector":"1"}},{"base_weights":[-9.438475E1,-1.655883E2,6.8057396E1,-7.296388E1,-7.585265E2,-1.5882195E2,3.6443347E2,-6.545172E1,-1.6641484E2,-1.872027E1,5.269399E0,6.38946E1,-3.9555318E0,-2.333509E1,9.467188E0],"categories":[],"categories_nodes":[],"categories_segments":[],"categories_sizes":[],"default_left":[0,0,0,0,0,0,0,0,0,0,0,0,0,0,0],"id":62,"left_children":[1,3,-1,5,7,9,11,-1,13,-1,-1,-1,-1,-1,-1],"loss_changes":[6.651013E6,3.239888E6,0E0,2.0482466E6,2.3898545E6,2.6026255E6,3.747527E6,0E0,6.225155E5,0E0,0E0,0E0,0E0,0E0,0E0],"parents":[2147483647,0,0,1,1,3,3,4,4,5,5,6,6,8,8],"right_children":[2,4,-1,6,8,10,12,-1,14,-1,-1,-1,-1,-1,-1],"split_conditions":[2.3125E4,2.0379E4,6.8057396E1,1.6611E4,1.9933E4,1.3932E4,1.7697E4,-6.545172E1,1.5113E4,-1.872027E1,5.269399E0,6.38946E1,-3.9555318E0,-2.333509E1,9.467188E0],"split_indices":[0,3,0,3,4,0,3,0,0,0,0,0,0,0,0],"split_type":[0,0,0,0,0,0,0,0,0,0,0,0,0,0,0],"sum_hessian":[6.1E1,5.9E1,2E0,5.2E1,7E0,4.4E1,8E0,3E0,4E0,2.4E1,2E1,2E0,6E0,2E0,2E0],"tree_param":{"num_deleted":"0","num_feature":"6","num_nodes":"15","size_leaf_vector":"1"}},{"base_weights":[1.0149094E1,-5.3190132E1,6.578884E1,-2.2286124E2,3.4253192E2,-3.703404E0,-4.0533847E2,8.4680927E2,4.4649338E1,-1.3887839E1,4.6440937E1,-3.508406E1,4.337003E-1,6.1463966E0,8.855042E1,-3.921714E1,1.3333954E1],"categories":[],"categories_nodes":[],"categories_segments":[],"categories_sizes":[],"default_left":[0,0,0,0,0,0,0,0,0,0,0,0,0,0,0,0,0],"id":63,"left_children":[1,3,-1,5,7,9,11,13,15,-1,-1,-1,-1,-1,-1,-1,-1],"loss_changes":[5.3626225E6,4.239178E6,0E0,1.7581165E6,2.816284E6,5.624763E6,2.9506368E6,4.4653675E6,2.6019598E6,0E0,0E0,0E0,0E0,0E0,0E0,0E0,0E0],"parents":[2147483647,0,0,1,1,3,3,4,4,5,5,6,6,7,7,8,8],"right_children":[2,4,-1,6,8,10,12,14,16,-1,-1,-1,-1,-1,-1,-1,-1],"split_conditions":[2.2135E4,1.5936E4,6.578884E1,1.3784E4,1.8581E4,1.276E4,1.701E4,1.701E4,1.9933E4,-1.3887839E1,4.6440937E1,-3.508406E1,4.337003E-1,6.1463966E0,8.855042E1,-3.921714E1,1.3333954E1],"split_indices":[0,4,0,1,4,0,0,3,4,0,0,0,0,0,0,0,0],"split_type":[0,0,0,0,0,0,0,0,0,0,0,0,0,0,0,0,0],"sum_hessian":[6.3E1,6.1E1,2E0,4.3E1,1.8E1,2E1,2.3E1,6E0,1.2E1,1.6E1,4E0,1.3E1,1E1,4E0,2E0,2E0,1E1],"tree_param":{"num_deleted":"0",